
counts 0.0032202494330704212 0.002272540470585227 -3.718123844009824E-5 -0.0010394050041213632 -0.002044134074822068 0.005241407547146082 -0.0019135106122121215 0.002430628752335906 4.947586567141116E-4 -7.626987644471228E-4 0.003393695689737797 0.0037963101640343666 0.0016926850657910109 -0.004483447410166264 0.002826094627380371 -0.005151893477886915 0.0020822861697524786 0.0049302903935313225 1.5655501920264214E-4 0.002339546335861087 0.004507660865783691 0.004338659346103668 3.490843519102782E-4 -0.0010318148415535688 0.001018812763504684 -0.002853378187865019 -0.0026114564388990402 -0.0023498665541410446 0.00458898302167654 -2.5412108516320586E-4 -0.002381012076511979 -0.0053543103858828545 0.001512151095084846 -0.0038912571035325527 0.004584643989801407 -0.0028361696749925613 -0.003585174446925521 0.0019163541728630662 0.0014188995119184256 -6.930840318091214E-4 5.438268999569118E-4 -0.0038003898225724697 0.0027833690401166677 0.001303474884480238 0.004501300398260355 0.005000597797334194 -0.0036184208001941442 0.0016025514341890812 0.003939191345125437 -0.003497637342661619 -6.520654424093664E-4 -0.004926996771246195 -0.0038682520389556885 -0.0028653291519731283 0.0033032491337507963 -0.004118964076042175 -0.0025970120914280415 -0.00155533105134964 0.004208164755254984 9.911494562402368E-4 -0.0024265272077172995 -0.003633458400145173 0.0030656256712973118 2.615988196339458E-4 0.004905288573354483 0.004873471800237894 -0.0030811119358986616 0.005274731665849686 0.002577398670837283 -0.00448400154709816 -0.004676280543208122 0.00260345870628953 0.0042123496532440186 -0.002528884680941701 -0.0026385881938040257 0.0022492525167763233 5.544003215618432E-4 -0.002539169741794467 -0.0013549679424613714 5.951329367235303E-4 -0.0018670640420168638 0.004411753267049789 -3.018012212123722E-4 0.0023176600225269794 0.004227899480611086 0.0026644435711205006 5.549552734009922E-4 -0.0025116722099483013 0.0028447939548641443 -3.491027746349573E-4 -0.004315592814236879 -0.0011604542378336191 0.003365968819707632 8.592802914790809E-4 5.585234612226486E-4 -0.0031840254087001085 0.002160000614821911 -2.1092423412483186E-4 0.003121725283563137 0.0015633691800758243
convert 0.0029489800799638033 0.0019246962619945407 -0.00181289529427886 -0.004335850942879915 0.003540489822626114 0.002203175565227866 0.004593652207404375 -0.002390473848208785 -0.0017013552132993937 0.003218576777726412 5.967080942355096E-4 -0.0032215628307312727 2.57803505519405E-4 -0.004488594830036163 0.003890092484652996 0.004842338617891073 0.0020805082749575377 0.0033904307056218386 -0.003642347175627947 0.0025670896284282207 0.0017540670232847333 -0.004418812692165375 0.0028020201716572046 0.0028816265985369682 -0.00172969710547477 -0.004835366737097502 0.0035289323423057795 0.0015134173445403576 -9.039430879056454E-4 -0.0027323251124471426 -0.00423349067568779 -0.004671848379075527 0.003475489094853401 -1.313178363488987E-4 0.0012893794337287545 0.004561806563287973 -0.004187572747468948 0.0021161846816539764 0.0011873721377924085 0.0044800955802202225 -0.003006946761161089 0.0027358606457710266 -0.003141214372590184 -0.0016756036784499884 0.002026701346039772 -0.0014196770498529077 5.802446976304054E-4 -0.0027156397700309753 -0.004535829182714224 0.004126276820898056 0.004926151596009731 -0.005062794778496027 -5.714863655157387E-4 0.0010078278137370944 -0.003665499622002244 -3.7688418524339795E-4 0.0026111011393368244 0.00447672326117754 -0.00439754081889987 0.002438613912090659 0.002602631924673915 0.0012210817076265812 0.0041199964471161366 0.004588400013744831 -0.0025129513815045357 0.004680837504565716 -0.004233032930642366 -0.0010523918317630887 -1.1554993398021907E-4 -0.004590846598148346 -0.0010165207786485553 0.004014655482023954 -5.289794062264264E-4 0.0044092098250985146 0.0014956410741433501 0.00394192710518837 -0.0021513060200959444 3.39029444148764E-4 -0.004633924923837185 -1.2707214045803994E-4 0.0050444332882761955 -0.004074121359735727 0.0022380610462278128 0.004909595474600792 -0.00236853351816535 -2.8592688613571227E-4 -1.254330127267167E-4 -0.0023055127821862698 0.0021520641166716814 -0.0015345417195931077 -9.858832345344126E-5 1.0358777944929898E-4 0.0027836435474455357 -0.003812972689047456 0.00433102622628212 0.003939864691346884 -0.003303058445453644 -9.326318395324051E-4 0.004267002921551466 -5.443663685582578E-4
variants 0.0017012999160215259 0.001130357850342989 1.9280081323813647E-4 0.0042055207304656506 0.0017968224128708243 0.0019241002155467868 0.0013086202088743448 0.0021290192380547523 8.294414728879929E-4 -5.204991321079433E-4 -8.820757502689958E-4 0.004334216006100178 -0.001978494692593813 -0.0016025963705033064 0.0025555845350027084 -8.085929439403117E-4 -0.0035260969307273626 0.001962634501978755 0.003915872890502214 -0.0035679121501743793 -0.005367121659219265 -0.003309807740151882 0.003948498517274857 0.004084520973265171 -5.100584239698946E-4 0.0025719942059367895 -1.9901659106835723E-4 -0.0012107574148103595 -0.004219605587422848 -0.003944600000977516 -0.004463252145797014 -0.00418401975184679 -0.0036324216052889824 0.0020288063678890467 -0.0013784192269667983 -0.0020557011011987925 0.00214129569940269 -0.0042961230501532555 -0.0046334476210176945 -0.0044004046358168125 -0.0034365577157586813 -0.002221528207883239 0.002458356786519289 -0.0032394479494541883 0.0023598612751811743 0.002457184949889779 0.002855841536074877 -9.95683716610074E-4 0.0018707959679886699 -0.001723729888908565 1.2736281496472657E-4 0.003593911649659276 0.0031564407981932163 0.001511943875811994 0.0020319209434092045 0.0034957255702465773 0.0041310666128993034 0.0014215662376955152 0.004749410320073366 -1.5933686518110335E-4 1.0122280946234241E-4 -0.002260791137814522 0.005215134471654892 -3.6931331851519644E-4 0.0028414360713213682 -0.0017988106701523066 -0.0014789808774366975 7.591741741634905E-4 -0.0024974560365080833 -0.003229668363928795 -0.003922095522284508 0.004451035056263208 -0.0026974971406161785 -0.004369775764644146 0.0013461800990626216 0.0038376583252102137 -0.004032523836940527 -0.0011806584661826491 0.0031193080358207226 -0.0017270958051085472 0.0015587515663355589 0.0023970974143594503 -6.681489176116884E-4 0.0015664827078580856 2.6844022795557976E-4 0.0031036867294460535 -0.003960312809795141 0.0017609746428206563 0.0025771104265004396 -0.004971189424395561 -0.0019967341795563698 -8.014162303879857E-4 9.864034363999963E-4 5.459054955281317E-4 0.004156424663960934 -0.003959604538977146 -0.004178459756076336 -0.0029461297672241926 -0.005165067967027426 -0.0010624066926538944
when -7.480704807676375E-4 -6.417636759579182E-4 -6.386078894138336E-4 -0.004802398383617401 0.0043411157093942165 0.0035591598134487867 -0.0022626607678830624 0.002413095673546195 -0.003742044558748603 6.851285579614341E-4 0.0012001406867057085 -0.0017232015961781144 0.0038282445166260004 -9.20587801374495E-4 -0.0038959290832281113 0.002179686678573489 0.004751047119498253 7.292294758372009E-4 1.1214701953576878E-4 0.002058844082057476 -0.0013171026948839426 -0.004045948851853609 0.002141471253708005 -0.0013584131374955177 4.3656869092956185E-4 0.0025276485830545425 -0.0016334732063114643 0.003688352182507515 0.004357459954917431 0.0013179159723222256 -7.473253645002842E-4 -0.0024000988341867924 -3.680885711219162E-4 0.0034410767257213593 0.0027273716405034065 -0.0033929890487343073 -0.005116593558341265 -0.004140867851674557 -0.003449060721322894 0.005304894410073757 4.924342647427693E-5 -0.004435197450220585 0.0045769065618515015 0.003684895345941186 -0.0014785358216613531 -0.001986093120649457 0.0033672682475298643 -0.0035066655836999416 0.0025015920400619507 -0.0035003232769668102 -1.972542959265411E-4 -4.369281232357025E-4 -0.003815962467342615 0.005006320308893919 0.004297664389014244 0.004651670344173908 0.003848521038889885 -0.004269846249371767 0.001730435062199831 0.0032395324669778347 0.0028829972725361586 -0.0022876798175275326 0.0020494600757956505 0.0012959897285327315 -3.548130043782294E-4 -0.0051707252860069275 0.00276844366453588 -0.002053189789876342 0.0017572444630786777 -0.00360163114964962 2.933346841018647E-4 -0.0044220867566764355 0.0024867786560207605 -0.0033893920481204987 0.004226522985845804 -0.003868773113936186 -5.699677858501673E-4 -7.751240045763552E-4 0.004422166850417852 0.0023857681080698967 -0.0013683652505278587 -5.68567484151572E-4 0.0031107484828680754 -3.783551510423422E-4 0.0012465122854337096 -0.0034867723006755114 0.0018256899202242494 0.002489315113052726 0.003375798463821411 0.0023562125861644745 0.004564840346574783 1.7704781203065068E-4 0.003198812250047922 0.003832600312307477 0.0036966304760426283 -0.0033529303036630154 0.005036005284637213 -0.004373413044959307 0.0043405103497207165 -0.0020925120916217566
sequencing -9.946459904313087E-4 1.872282737167552E-4 0.0027835234068334103 -0.0010860591428354383 -0.0025131707079708576 -0.0016856961883604527 -0.0018743466353043914 -0.003013631096109748 0.004788534250110388 -0.0010861604241654277 0.0010791271924972534 -0.004098808858543634 -8.999971905723214E-4 0.0026949786115437746 7.461083005182445E-4 -0.0036017366219311953 0.0037119502667337656 -0.0016880942275747657 0.0050943829119205475 0.004509864840656519 -0.004581355024129152 -0.0026139679830521345 -0.0025607666466385126 0.0020701868925243616 5.134466337040067E-4 -0.004586623515933752 -4.478534683585167E-4 1.0875788575503975E-4 -0.0020046576391905546 8.46787472255528E-4 -0.005056772846728563 -0.004365865141153336 1.3053648581262678E-4 3.897566057275981E-5 -0.004488644190132618 -0.005714705213904381 0.002865764545276761 -0.004148207139223814 0.0038486372213810682 0.005570626351982355 0.002661891980096698 0.0016703404253348708 0.0029435285832732916 -0.004501647315919399 0.004368848167359829 -2.567365881986916E-4 6.486883503384888E-4 5.318509065546095E-4 -3.834321105387062E-4 0.00439060665667057 3.246955166105181E-4 -0.004145180340856314 0.0011045702267438173 0.0041323439218103886 0.0031876349821686745 8.791530854068696E-4 -0.0036934984382241964 1.7171664512716234E-4 -3.7238653749227524E-4 0.004482815973460674 -7.80593603849411E-4 -2.3180358402896672E-4 -0.0020305367652326822 -0.0017843247624114156 0.0021883822046220303 0.0033527554478496313 6.566703086718917E-4 0.0048353602178394794 -0.0038090681191533804 0.0038155310321599245 -0.002686845837160945 5.868469597771764E-4 -0.003318649949505925 -9.285815758630633E-4 9.68803302384913E-4 -0.001576706999912858 0.002588403644040227 -9.633135050535202E-4 -0.0026676179841160774 0.00488002086058259 0.0018772996263578534 0.0027338690124452114 -0.005374435801059008 2.362600644119084E-4 0.004248463548719883 -0.00508155208081007 -0.003967566881328821 -1.6470059927087277E-4 -0.003248478751629591 0.0030121998861432076 -0.0021397043019533157 9.324896382167935E-4 -0.003365826793015003 -0.0037360480055212975 2.5324488524347544E-4 0.004617013968527317 0.0030877713579684496 0.0037813077215105295 -0.0033102824818342924 -0.0013852902920916677
bam 0.0016051381826400757 -0.002664419589564204 -8.500000694766641E-4 -0.0023016284685581923 -1.6199456877075136E-4 2.3582176072522998E-4 -4.1645413148216903E-4 -0.004945899359881878 -0.001982609275728464 0.0027035323437303305 0.0026669746730476618 -0.004422169644385576 0.004401132930070162 -0.0033750212751328945 -0.004350770264863968 -0.0015290131559595466 -0.0020775815937668085 -7.031367276795208E-4 -6.665592081844807E-4 0.0035735787823796272 0.0016683224821463227 0.004030590411275625 0.00340259843505919 4.657430399674922E-4 -5.226403591223061E-4 6.8704504519701E-4 0.0010749149369075894 0.0011818277416750789 0.00184030388481915 1.7747266974765807E-4 -0.002723740879446268 -5.883520352654159E-4 -0.001258513075299561 0.003921626601368189 -0.0011806032853201032 -0.0036790892481803894 0.003809308633208275 -0.00449168449267745 -0.0023907877039164305 -2.1401484264060855E-4 -0.0027755601331591606 -0.0037160366773605347 -0.0032573677599430084 0.0011022998951375484 -0.0033118920400738716 -0.0041686720214784145 -0.005320201627910137 0.004816723056137562 0.0019971420988440514 -0.0015570190735161304 -0.0028513064607977867 0.0012629597913473845 0.004335199017077684 0.004819322843104601 0.0018728532595559955 0.0033773945178836584 0.004188625141978264 2.3632684315089136E-4 -0.004846682772040367 -0.003029102459549904 -0.0024909540079534054 -0.0017098429379984736 0.0014653293183073401 5.880218668607995E-5 0.004057323094457388 -0.0010126831475645304 -0.001874364446848631 0.0030864719301462173 0.0038172677159309387 -0.005367461126297712 -0.003531977767124772 -0.00344664603471756 -0.004440543707460165 -0.003716327715665102 0.0033431220799684525 -0.0028692814521491528 0.002018233761191368 -0.0014152248622849584 -0.003066023113206029 0.0022166843991726637 0.003121881978586316 0.0037602719385176897 -0.0028801639564335346 -0.0017783907242119312 -0.0027663675136864185 -0.005243439227342606 0.0020024559926241636 -0.0013242597924545407 -4.306399205233902E-4 0.002155589871108532 0.005269775632768869 6.426747422665358E-4 0.0013327916385605931 -0.003294503316283226 -0.0016961380606517196 9.631689754314721E-4 0.0021029787603765726 6.08233327511698E-4 2.8728102915920317E-4 0.005012058652937412
number 0.002784441690891981 1.1562021973077208E-4 0.004596718121320009 0.001509195426478982 -0.0037436550483107567 0.0023650291841477156 0.004913334734737873 5.2341737318784E-4 0.005373209714889526 -0.0020363375078886747 0.003967227414250374 -0.001299467170611024 0.0011685078497976065 -0.0019068026449531317 0.002269545802846551 -0.005781485233455896 0.003127701347693801 0.003385466057807207 -0.004413110204041004 3.3220356272067875E-5 0.001230219379067421 -3.6209949757903814E-4 0.003546138759702444 0.004907215479761362 -0.004431189503520727 -0.0010463721118867397 0.0040906635113060474 0.004834251943975687 -5.109299090690911E-4 0.0023417863994836807 -3.3664455986581743E-4 0.00230024172924459 0.0012524593621492386 -0.005362647119909525 -0.0025181476958096027 0.00317716714926064 -1.633788924664259E-4 -0.00286233052611351 0.0033511286601424217 1.5220163913909346E-4 0.0018430387135595083 0.0024329989682883024 0.004530728794634342 -0.002299689222127199 0.003705450799316168 0.0025949147529900074 6.697234348393977E-4 -0.0014270658139139414 0.0026570011395961046 -1.3525535177905113E-4 0.0017304037464782596 -0.0029241798911243677 -0.002778047462925315 -0.0026457542553544044 -0.002466707956045866 -7.776811835356057E-4 0.004439410287886858 -0.002687981352210045 -0.004099404439330101 0.0011237500002607703 0.004615393932908773 0.004001761320978403 6.656352197751403E-4 -0.002727058483287692 -2.009332092711702E-4 -4.4811819680035114E-4 -0.0012112114345654845 6.506330100819468E-4 -0.004125081934034824 9.093880653381348E-4 0.0037896984722465277 -0.003174946177750826 0.001043239957652986 -0.0043268329463899136 0.004631747491657734 2.385584666626528E-4 -0.00217430479824543 -0.0020302163902670145 0.004040728323161602 0.0022745223250240088 0.003842925187200308 -0.004020332358777523 -0.001915031112730503 0.004899533931165934 3.9497585385106504E-4 8.768828702159226E-4 7.136127533158287E-5 -0.002366322558373213 -0.004123830236494541 -0.005174890626221895 0.00541716068983078 0.004001539666205645 0.0019570516888052225 0.002784343436360359 -0.004435788840055466 0.0013662424171343446 0.0030227757524698973 0.0030589010566473007 0.0013029022375121713 0.003135177306830883
dna -0.003214405383914709 0.0030815559439361095 0.0020945894066244364 0.004067851230502129 0.004030563402920961 0.004067985340952873 0.0023334475699812174 -0.004298154264688492 0.0015911044320091605 -0.0023196409456431866 0.0020787138491868973 0.002205475466325879 -4.814357089344412E-4 -7.939409115351737E-4 -0.005702627822756767 -0.005465093068778515 -0.0037839177530258894 -0.002115613780915737 0.002828455064445734 -0.0036419930402189493 2.3686385247856379E-4 0.002184988697990775 0.0036670409608632326 0.003536918433383107 0.003670929931104183 -9.619070624466985E-5 0.00254498771391809 0.0032164859585464 8.786891121417284E-4 0.0046501774340868 -0.004934354219585657 -0.002348895650357008 0.003918339032679796 -0.005644653458148241 -8.398357313126326E-4 -0.0029426717665046453 -0.0033000423572957516 -0.0044877054169774055 -1.0571435268502682E-4 -0.0026324396021664143 -0.004004563670605421 0.0051985993050038815 0.0043087066151201725 -0.005178069230169058 0.001078287954442203 -0.001573113608174026 0.0030289157293736935 0.004096548072993755 0.004148396197706461 0.0020067936275154352 0.0024929624050855637 -3.6671594716608524E-4 -0.0015470241196453571 9.611962595954537E-4 -0.0032513723708689213 -0.003820850281044841 -0.002832241589203477 -0.004846499767154455 -0.004284597467631102 -0.004997113719582558 0.001579726580530405 0.0023850388824939728 0.004240106325596571 -0.002832855796441436 0.004703348036855459 5.99471153691411E-4 -5.641112802550197E-4 0.004546075593680143 -0.0022197868674993515 -0.003129583550617099 0.003373302286490798 -0.003321754513308406 -3.417413972783834E-4 0.003876258386299014 -0.004288683645427227 0.0032015065662562847 0.0010277413530275226 0.001235642354004085 0.001875665271654725 -0.001093346276320517 0.003185117384418845 0.003074594773352146 0.004381808917969465 -0.0036011035554111004 -5.534433876164258E-4 -0.0018786482978612185 0.003407043870538473 -7.029669359326363E-4 0.0015553334960713983 0.003335145767778158 0.001252202084288001 -0.0028725380543619394 -0.003522112499922514 -0.0036844031419605017 -0.0012846130412071943 -0.003943164832890034 0.004768813960254192 3.694936749525368E-4 -3.9712878060527146E-4 9.374860674142838E-4
protein 0.0034391828812658787 -0.002352525480091572 0.0031193620525300503 0.0034834016114473343 -0.0010477243922650814 0.0011034565977752209 0.0024282531812787056 -0.0012306112330406904 0.0017613153904676437 -0.0035051419399678707 3.174744197167456E-4 -0.0017032240284606814 -0.001872452674433589 -2.608979120850563E-4 -0.0032355363946408033 0.0032791171688586473 0.004674155730754137 -0.0013809679076075554 0.003437619423493743 -0.001735794241540134 -0.0031176190823316574 -0.004319937899708748 0.002463188488036394 -2.0372231665533036E-4 0.0025670260656625032 4.559021326713264E-4 0.003105851821601391 6.377704557962716E-4 8.710436522960663E-4 -1.8809011089615524E-4 -0.004007892217487097 -0.005333415698260069 0.0013413276756182313 -0.002285395748913288 -0.0025230261962860823 -0.0016595994820818305 -0.003746605245396495 -0.005245131440460682 0.0016546384431421757 0.004144856706261635 -0.0021269218996167183 0.002839092630892992 0.004108860623091459 9.157899767160416E-4 -9.063206962309778E-4 -0.0038846905808895826 -0.005199772771447897 0.004583864472806454 0.0021653426811099052 -0.0034145000390708447 -0.0037068172823637724 -0.0037417151033878326 -0.0018808390013873577 -0.0010806628270074725 -4.178615054115653E-4 0.0034772821236401796 -7.214233628474176E-4 -0.0012988742673769593 -0.0021340311504900455 -0.005041908472776413 0.0016897318419069052 -0.0024119222071021795 -5.742991343140602E-4 -0.0022782639134675264 0.004956278949975967 0.004389122594147921 -0.00487818056717515 -0.0018472621450200677 0.003893606597557664 -0.002557688159868121 -0.004474610090255737 -9.100761380977929E-4 -0.002117566764354706 0.0030290023423731327 -8.329993579536676E-4 0.0021363163832575083 -0.00399544183164835 -0.0033091444056481123 0.002938849851489067 -0.004102557897567749 -8.367999689653516E-4 0.0017798020271584392 -0.005476726219058037 -0.0030768639408051968 0.0017072554910555482 -0.004265673458576202 -0.004416815470904112 -0.005248353350907564 -0.0029742387123405933 -0.004137891344726086 4.8008342855609953E-4 0.002920880913734436 0.0033440946135669947 0.003171516815200448 0.005201613996177912 0.0037274581845849752 -8.500213152728975E-5 -1.5852844808250666E-4 0.003648928366601467 0.004455242305994034
gtf -3.994720464106649E-4 4.8516440438106656E-4 -0.004447306040674448 3.4292065538465977E-4 -0.003878322895616293 -0.004830433055758476 -0.001007215352728963 0.0019059566548094153 -0.003623262047767639 0.004436525050550699 -0.003557019867002964 -0.00435903063043952 2.2222685220185667E-4 3.9252208080142736E-4 0.002273213118314743 0.0032454505562782288 0.002447271952405572 -0.004155936650931835 0.003876479109749198 -0.0030622349586337805 0.0014710751129314303 -0.0046535334549844265 0.002770155668258667 0.004004074260592461 1.551212917547673E-4 -0.0031308371108025312 0.0016994494944810867 -4.3668938451446593E-4 -0.004309379495680332 -1.0611453035380691E-4 -0.0014559620758518577 -0.00207763840444386 0.0027237236499786377 -0.0010913683800026774 -0.002540311310440302 -0.0037453605327755213 -0.0021567796356976032 -0.004727835766971111 0.0033055299427360296 -0.0034704136196523905 0.004028148949146271 -0.0030306358821690083 -0.002152814529836178 0.0014221381861716509 0.0022261436097323895 0.004750353284180164 0.001217166311107576 0.0015448953490704298 -0.004632876720279455 -0.004640151280909777 0.0022172373719513416 -0.004971063695847988 0.0017775939777493477 -0.002618530299514532 0.0032360958866775036 -0.004739042371511459 0.002116133226081729 -3.286407081759535E-5 0.004148060455918312 -0.002417472656816244 0.0030103549361228943 -0.004324404522776604 -0.003673532046377659 -0.004492799751460552 1.4799599011894315E-4 -0.0021750994492322206 0.003225102322176099 0.0029933720361441374 0.004814003594219685 -0.0029839645139873028 -0.004541545640677214 0.0011533611686900258 -0.0020316424779593945 -6.502493051812053E-4 0.0033802115358412266 3.0627165688201785E-4 0.0029068777803331614 -0.0017903725383803248 0.0027221771888434887 2.5279229157604277E-4 0.0024122712202370167 -0.0036079806741327047 1.4830808504484594E-4 0.0034650955349206924 0.0018887232290580869 -7.492289296351373E-4 0.0022544909734278917 0.003828945569694042 -0.0020483057014644146 -0.0015875139506533742 -0.0026767943054437637 -8.083106949925423E-4 0.004211266990751028 -6.976499571464956E-5 8.869842858985066E-4 -0.0032407615799456835 -0.0029409120324999094 0.0022864534985274076 0.003573169931769371 -0.0040938956663012505
calculate -0.0020225790794938803 -0.004157729912549257 0.005108513403683901 0.0035856503527611494 0.001705214730463922 -0.0026336954906582832 -0.0010807099752128124 -0.002904703142121434 0.0021431585773825645 -0.005198244471102953 -0.004123829770833254 -0.00125386961735785 0.0033471316564828157 0.0015872918302193284 -0.002458391711115837 -0.002312298631295562 -0.0025301864370703697 0.003065837314352393 2.1740692318417132E-4 -0.0046366797760128975 0.0026946188881993294 -0.0022900751791894436 0.0023310105316340923 0.004099422134459019 0.004939828533679247 -0.001986547140404582 0.004470112733542919 0.0044783432967960835 4.639919498004019E-4 -0.003140384331345558 0.0036573305260390043 -1.1750546036637388E-5 0.0035635221283882856 -0.004285780712962151 0.0014969115145504475 -0.0017430051229894161 -0.0028231206815689802 0.0012906979536637664 -3.8200459675863385E-4 4.38765506260097E-4 0.0011925098951905966 0.004103987477719784 0.002836609957739711 -0.003354370826855302 9.99537529423833E-4 2.3091118782758713E-4 -1.3228901661932468E-4 4.406494554132223E-4 3.357760433573276E-4 -0.003521544858813286 0.001420634682290256 -0.0017990631749853492 0.0020084711723029613 -5.920344265177846E-4 -0.0038609683979302645 -9.31146671064198E-4 -0.0037646309938281775 -0.0031175778713077307 -7.836714503355324E-4 7.59526330512017E-4 -1.359235102427192E-5 -0.004428625572472811 0.00411250488832593 -0.002537001622840762 -0.0021961363963782787 7.071187719702721E-4 1.625305594643578E-4 -0.0012723507825285196 0.004414860624819994 -0.0017560254782438278 -2.3353545111604035E-4 -0.004477115347981453 -0.005073946435004473 -0.0011577960103750229 7.996257045306265E-5 0.0013687638565897942 0.002513349521905184 6.55699404887855E-4 0.003513405565172434 -0.003092736005783081 0.002254314487800002 0.003791752038523555 0.003298009280115366 0.004557625390589237 0.004342454951256514 -0.001311181578785181 0.004151979926973581 0.0028695857618004084 -0.0011722794733941555 -0.005009374115616083 0.0022661117836833 0.00339806848205626 -0.0028566669207066298 8.811047882772982E-4 3.672391176223755E-4 8.614924736320972E-4 -4.346520290710032E-4 0.003160100197419524 -2.2083079966250807E-4 0.004565410315990448
id 0.0037603869568556547 -8.276732114609331E-5 0.002102343598380685 -0.004434523172676563 -0.0037988820113241673 0.004599717911332846 0.0011080354452133179 0.003346935613080859 0.0034409286454319954 -0.001548909000121057 7.186930743046105E-4 -0.0011450927704572678 -8.817794732749462E-4 1.2199415323266294E-5 -8.147088228724897E-4 0.0037494164425879717 0.005515875294804573 0.004200596362352371 -0.0013831926044076681 0.0023576312232762575 -0.0030308885034173727 0.0038506989367306232 -0.003637745277956128 -7.640324765816331E-4 0.0032181476708501577 -0.001997910439968109 8.741884375922382E-4 0.0035856859758496284 -7.973529282025993E-4 0.004689997993409634 -0.0029512657783925533 -0.0010693399235606194 9.726049611344934E-4 -0.0013955968897789717 -0.004743807949125767 -2.6085197532665916E-5 -0.005089149810373783 -0.0020157406106591225 -0.0027578703593462706 -0.0017521785339340568 -0.0026420396752655506 -8.0380734289065E-4 -3.280080563854426E-4 0.0018304126570001245 0.0028046495281159878 -0.003501597326248884 0.004066553432494402 0.004153427202254534 -0.0015422719297930598 -5.751603748649359E-5 -0.0010305753676220775 -0.0034468278754502535 5.56554994545877E-4 -0.0021828748285770416 -0.0037670733872801065 -8.667921065352857E-4 0.0053712730295956135 -0.004052842501550913 -0.005663685500621796 -0.0018112778197973967 0.005415366031229496 0.002141382545232773 -0.0015290187438949943 -0.0032125983852893114 0.005472071003168821 -0.003114461898803711 -0.0011848134454339743 -4.159520904067904E-5 -0.0025751853827387094 -0.004900834988802671 0.004765699617564678 -0.0020034436602145433 0.004336461424827576 1.8791502225212753E-4 -0.0017574422527104616 -0.0032786063384264708 -0.0017433380708098412 0.0011541277635842562 -0.001284433645196259 1.1248327064095065E-4 0.0044637094251811504 -0.003405940718948841 -0.0036044111475348473 1.4648438991571311E-5 -0.005521309096366167 0.003096317872405052 -3.8361153565347195E-4 -0.0012560803443193436 0.00439788680523634 0.001508161542005837 3.756791993509978E-4 0.0020107245072722435 0.0024329754523932934 3.3648426324361935E-5 -0.001189302303828299 3.3228311804123223E-4 0.0046642557717859745 -0.001398120541125536 -3.7316768430173397E-4 -0.0020662012975662947
you -0.0030849240720272064 0.004256574437022209 0.0029868995770812035 -5.473836208693683E-4 0.002241932088509202 0.0013832413824275136 -5.518299876712263E-4 -0.003909622319042683 -3.694904735311866E-4 0.00202788389287889 -0.004318190272897482 0.0025050106924027205 0.001022983225993812 -0.003434383077546954 2.9465329134836793E-4 1.46276579471305E-4 -0.004172403831034899 -0.004580224398523569 -6.883671740069985E-4 0.003793861251324415 7.505355169996619E-4 -0.0019841769244521856 0.0029492732137441635 -0.003741166088730097 0.0024928580969572067 0.0036353759933263063 7.283348822966218E-4 0.002472992055118084 -0.004815003834664822 0.003564284648746252 0.0037666219286620617 0.003785310313105583 0.002163135912269354 -0.001981630688533187 0.0034811808727681637 -8.807681151665747E-4 -0.0038591811899095774 -0.005166451446712017 0.0022199866361916065 0.0011508468305692077 -0.005088485311716795 -0.004146254621446133 0.0020604687742888927 0.004265131428837776 0.002134265610948205 0.002902156673371792 0.004482464399188757 -0.0012258131755515933 0.003477373393252492 -9.742781985551119E-4 -3.459213185124099E-4 -8.074871147982776E-4 -4.3134510633535683E-4 -5.129743367433548E-4 -6.049242801964283E-4 -0.00400287751108408 0.004775763489305973 0.0011835034238174558 -5.698165623471141E-4 0.003019950119778514 0.004264982417225838 -0.00475395517423749 0.002115050097927451 -0.0032935556955635548 -0.0022947569377720356 -0.001893495791591704 0.0029855151660740376 0.0040711816400289536 -3.0172988772392273E-4 0.0019996867049485445 2.854273479897529E-4 -0.001246573170647025 0.004565663635730743 -0.001426237402483821 -0.0016748096095398068 -6.417221738956869E-4 0.0011934810318052769 -7.155788625823334E-5 0.00324070337228477 0.005105534102767706 -2.557132684160024E-4 -0.0038137286901474 2.405133709544316E-4 -4.6951347030699253E-4 3.858027048408985E-4 -0.0023852242156863213 0.005019402597099543 -0.0019354961114004254 0.0031781685538589954 0.0012405087472870946 0.00555386720225215 -0.005256584379822016 0.0018109743250533938 -0.0015192808350548148 -3.946071956306696E-4 -0.0010810308158397675 0.0025739758275449276 0.0011188122443854809 -0.003090468468144536 -0.004829112906008959
between -0.004220375791192055 -0.003003783756867051 -3.8968969602137804E-4 0.00214226427488029 -0.003116763196885586 -0.0033514846581965685 -7.315272814594209E-4 0.0029429644346237183 -0.0030446455348283052 3.1331428908742964E-4 -0.003102408954873681 -7.931461441330612E-4 -0.004008673131465912 -0.003150085685774684 0.0010967279085889459 0.001297450507991016 0.0022708463948220015 0.0010897143511101604 -0.004409695975482464 -8.350112475454807E-4 0.0038034154567867517 -0.0018308056751266122 -0.0013494506711140275 -0.00294900662265718 -0.0032654497772455215 -0.0036878627724945545 0.002379663987085223 -0.0023189240600913763 -0.00470786402001977 -0.0028184237889945507 0.0016083059599623084 -0.0020197336561977863 -0.0015597067540511489 0.0030182553455233574 -3.240883524995297E-4 -7.050405838526785E-4 0.005308734253048897 0.0024028681218624115 0.0018845604499801993 3.736774669960141E-4 0.005143384449183941 0.00441705109551549 -0.004827288910746574 0.005058463662862778 0.001907744212076068 0.0028034676797688007 -0.004963268060237169 -0.004115259274840355 -7.304614991880953E-4 0.0022618023212999105 0.004680253565311432 -2.8767678304575384E-4 0.0032874615862965584 -0.0011563589796423912 -0.003487717593088746 -2.7772426255978644E-4 -0.004171008709818125 0.0018484082538634539 -0.002993960864841938 0.0024894566740840673 0.00433359993621707 -0.004745075479149818 -0.005625003017485142 -0.003799835918471217 0.00327073666267097 0.002464493503794074 -0.003400611924007535 -1.0526966798352078E-4 7.907390245236456E-4 0.0013278311816975474 -0.001123326364904642 -0.004066196270287037 0.004910631105303764 0.004039989784359932 -0.0019082161597907543 0.001938933040946722 -0.0010805055499076843 -0.0053823539055883884 -0.0018009798368439078 0.0020096157677471638 -0.002643212443217635 0.001045617158524692 -1.2615650484804064E-4 2.6524291024543345E-4 0.0017918201629072428 -0.004889721516519785 0.0016973881283774972 0.0033510494977235794 0.0022010249085724354 -0.005118963308632374 0.002941687358543277 2.562860317993909E-4 -0.002483617514371872 9.672398846305441E-6 0.0014745229855179787 -0.0038570810575038195 -0.0012423894368112087 8.526778547093272E-4 0.005221260711550713 -1.6172323375940323E-4
based 0.002637257566675544 0.0019024648936465383 0.003432151162996888 0.0030473056249320507 0.004872755613178015 -5.977611290290952E-4 -0.003916407935321331 -5.748438416048884E-4 0.004125223495066166 0.0026571599300950766 -1.6217895608861E-4 -3.252509341109544E-4 6.447738269343972E-4 -0.0030585643835365772 -0.0016868829261511564 -5.496312514878809E-4 3.4003871405730024E-5 -0.0022405756171792746 0.0037377451080828905 -0.0013631496112793684 9.731263853609562E-4 0.0025131371803581715 0.0020743601489812136 0.0036755038890987635 9.764146525412798E-4 -2.448317245580256E-4 0.0015882067382335663 8.421412348980084E-5 0.004075683653354645 0.0029617880936712027 -0.0014671371318399906 0.0016387817449867725 0.00376105890609324 0.004753338173031807 0.002259441651403904 -0.0011277616722509265 0.002474802313372493 -2.7651721029542387E-4 0.0014157411642372608 0.003659246489405632 -0.0012975400313735008 0.00169371475931257 1.346423669019714E-4 -3.815219970420003E-4 -0.0046903896145522594 0.004364671651273966 0.003692911472171545 -0.0010093582095578313 0.0017610499635338783 0.001651525148190558 0.001544974627904594 -0.0011836132034659386 -0.0012609163532033563 -0.0014678139705210924 0.002399199642241001 0.0049701412208378315 -0.003599667688831687 0.004686655011028051 -0.004954018164426088 -0.00333104794844985 0.0018194707809016109 -1.3550576113630086E-4 -0.0026862581726163626 -0.003678214969113469 -9.010534849949181E-4 -0.0018318186048418283 -0.0022960477508604527 0.004156132694333792 0.0026182648725807667 0.00293649616651237 -0.0011825858382508159 -0.002089024754241109 -0.002034130971878767 -0.003232917981222272 -0.004529071040451527 9.116031578741968E-4 0.004596469923853874 0.0013350629014894366 6.957144942134619E-4 -0.0013804740738123655 0.0028321747668087482 -0.001994107151404023 0.0038752597756683826 -0.004277077969163656 -0.0017106558661907911 0.0040897950530052185 -0.0010750035289674997 0.004729348700493574 -3.910733503289521E-4 -0.003200281411409378 -7.940022624097764E-4 -0.005021651275455952 0.0045183259062469006 -0.0036870334297418594 0.0031427748035639524 -0.0015532264951616526 -0.00448054913431406 1.337985013378784E-4 2.275926381116733E-4 0.0018919873982667923
mapping -0.003404011018574238 0.0023315215948969126 0.002938581630587578 -0.005019380711019039 -0.0028776847757399082 0.0018161095213145018 -0.0017812803853303194 -0.005054032895714045 -0.0030252852011471987 -7.43638607673347E-4 -0.001430907635949552 0.0014368563424795866 -0.005259224213659763 -1.9930212147301063E-5 5.761175998486578E-4 1.7644185572862625E-4 0.004311220720410347 0.002837246283888817 0.004789813421666622 -0.002039617160335183 0.0020323621574789286 2.7623845380730927E-4 4.131689202040434E-4 0.002564992057159543 -6.961725885048509E-4 -0.001984913134947419 -0.0016573320608586073 0.0031355679966509342 -0.004992982372641563 -0.003783988766372204 -0.004906128626316786 -8.608514908701181E-4 0.003685362869873643 -0.0015670486027374864 -0.003930982202291489 -0.005301679018884897 0.0012709517031908035 0.003032104345038533 -0.0019771633669734 0.006270301528275013 -0.0014509710017591715 0.0029380591586232185 0.0031005421187728643 -0.0019780604634433985 -0.0035183418076485395 -0.002445773920044303 -0.002216304885223508 0.002885145368054509 -0.003903835080564022 0.0025906458031386137 0.005233466159552336 -0.003183804452419281 0.002628681482747197 -5.981940776109695E-4 -0.0025878429878503084 -0.0010648462921380997 0.00210994272492826 0.003018502378836274 -6.442589801736176E-4 0.0044898600317537785 4.4046706170774996E-4 -0.005211427342146635 0.0037329820916056633 -2.9546325094997883E-4 -0.0024677361361682415 -0.0010352429235354066 -0.00540671544149518 -7.400772883556783E-4 0.0028404563199728727 -2.2475665900856256E-4 7.944342214614153E-4 -0.003609196050092578 -7.278306293301284E-4 -0.004232707899063826 0.003718613414093852 0.0017101200064644217 0.004880096297711134 0.0019302750006318092 0.004459585528820753 -4.932627198286355E-4 0.0015230554854497313 -0.0013369382359087467 -0.0017968177562579513 0.0029880220536142588 -0.0019723386503756046 -0.004625506233423948 0.0033502615988254547 -6.103747291490436E-4 0.003516034921631217 -6.758333183825016E-4 0.0034224726259708405 -0.003784858388826251 0.004400799050927162 0.0019059121841564775 0.003099828725680709 0.0022499861661344767 0.003937873058021069 -0.002220949623733759 -0.0012345645809546113 7.876161835156381E-4
using 0.0031557693146169186 -0.004437425173819065 -8.11522186268121E-4 0.0021572255063802004 -0.0038742295000702143 0.002608093898743391 0.0036050069611519575 0.002311984309926629 -0.003618624759837985 -0.002922271378338337 -1.0817009751917794E-4 6.57696567941457E-4 -5.620972951874137E-4 -9.259981452487409E-4 -0.0015162088675424457 0.0017492988845333457 3.708678559632972E-5 -0.0033903825096786022 0.0012386071030050516 0.001902884803712368 0.0035370078403502703 4.782342875842005E-4 -0.00316839967854321 0.00141664978582412 0.004215177148580551 -0.0031621234957128763 0.00526109803467989 0.003910074010491371 0.0035804545041173697 6.643817177973688E-4 0.002167965518310666 0.0030737852212041616 -0.0037146257236599922 1.19444724987261E-4 -0.003912551794201136 0.0015977350994944572 4.78279369417578E-4 0.003803037339821458 -0.0023247436620295048 6.239360081963241E-4 -0.0016650869511067867 0.0020178668200969696 1.9105238607153296E-4 -0.003993093967437744 -0.003100978210568428 -0.0034984180238097906 0.002241848735138774 0.0014250122476369143 1.7492956249043345E-4 -0.0027142693288624287 0.004172931425273418 7.554517942480743E-4 -0.003977123182266951 -0.003943681251257658 0.0016981634544208646 0.001853157882578671 -2.3583915026392788E-4 0.0032714507542550564 -0.005133009981364012 -4.533089231699705E-4 -0.001722395303659141 0.0030882672872394323 0.001838049734942615 5.386864067986608E-4 0.005588811822235584 -0.0023001383524388075 0.003112003207206726 -5.547468899749219E-4 0.003327211830765009 -0.0025145725812762976 0.004650108981877565 -0.005136525258421898 -0.0012192365247756243 7.12799490429461E-4 2.0682296599261463E-4 0.0036348518915474415 0.0019907434470951557 -0.003270892659202218 0.002000404754653573 -0.004190613515675068 0.0038617367390543222 0.004455030430108309 -3.2271037343889475E-4 0.0035790391266345978 -0.0043941279873251915 -0.004170900210738182 -0.0027720006182789803 -0.00110375857912004 0.0016235511284321547 0.004260685294866562 0.004924491047859192 -0.003201785497367382 -0.003208081005141139 0.003815658390522003 0.003236121032387018 -8.855594787746668E-4 0.0034142264630645514 -0.004880772903561592 0.005304582882672548 -0.0013546994887292385
peptide 0.0014039416564628482 0.0020681482274085283 1.1568008631002158E-6 0.004687344655394554 0.004017372149974108 7.67331977840513E-4 6.634283345192671E-4 -0.004483815282583237 -0.004131100606173277 -0.0025830294471234083 0.0020053766202181578 -0.0016639904351904988 1.3257705722935498E-4 -3.529587702360004E-4 -0.0019909285474568605 -0.00149120157584548 0.003476760582998395 0.004242837894707918 -0.0035090388264507055 -0.0024751638993620872 -6.287298747338355E-4 -9.485191549174488E-4 0.004486345686018467 9.554041316732764E-4 -0.0031001288443803787 0.0021010928321629763 -0.0013271826319396496 -0.0019046200904995203 0.0026805002707988024 0.004295393358916044 -0.004694629926234484 -0.0030737260822206736 0.0032929060980677605 0.0036528597120195627 0.0017742295749485493 -0.004907301161438227 -0.003281383076682687 -0.0012695505283772945 0.0010000198381021619 0.002921201754361391 -0.005390169098973274 0.004083807580173016 -0.0038270396180450916 0.0031317726243287325 0.0038625989109277725 4.633939824998379E-4 -5.908681196160614E-4 -0.0034821713343262672 0.005087821278721094 0.0020919740200042725 -0.003772389143705368 0.0011914207134395838 -0.0024990735109895468 -0.003830236615613103 0.0038910771254450083 -0.0015088801737874746 -0.002118215896189213 4.6193780144676566E-4 -0.004616343881934881 -0.004442382138222456 0.0033041348215192556 0.0030647353269159794 2.1465588361024857E-4 -0.0025304798036813736 0.0017543330322951078 0.00408833147957921 -6.091842660680413E-4 0.0033855163492262363 0.0025604604743421078 -6.499257870018482E-4 -0.004904186353087425 -0.0016056107124313712 0.0024984076153486967 -0.0022935124579817057 -0.0018112960970029235 -0.0029364118818193674 0.0048151686787605286 -0.0025549016427248716 -9.787478484213352E-4 0.0021019531413912773 0.0042702509090304375 -0.004331138450652361 -0.0039079138077795506 0.0038335497956722975 -0.005098344758152962 -0.00378038571216166 0.001223151572048664 -0.0020914957858622074 0.005205813329666853 -0.0040517281740903854 0.003935415763407946 0.0030912223737686872 -0.002383759943768382 1.476004981668666E-4 8.453017799183726E-4 -8.048603922361508E-5 -0.004320848733186722 0.0036719797644764185 0.002749887527897954 0.0018528203945606947
large -7.047797553241253E-4 -0.004012019839137793 -0.0010288627818226814 -0.004821734968572855 0.0014384464593604207 0.0013202088885009289 0.004242148716002703 0.0020092790946364403 -0.002294720383360982 0.0020713917911052704 9.785873116925359E-4 -0.0037564218509942293 1.9387305655982345E-5 -0.0013680050615221262 1.6306701581925154E-4 -0.005026673432439566 -0.001958079170435667 -0.0036273805890232325 -0.0021929957438260317 -0.004442309029400349 -0.004082608502358198 -0.003347530495375395 0.004511664155870676 0.0028524769004434347 -0.00242029526270926 9.54867573454976E-7 0.0015411734348163009 -0.0039286501705646515 -0.0035631891805678606 0.002179587259888649 -0.0037570574786514044 -1.569823143654503E-5 -6.676342454738915E-4 8.362408261746168E-4 0.0035476800985634327 -0.002720765769481659 -0.0016827293438836932 -0.0035180849954485893 -0.0020814675372093916 0.0037248258013278246 -0.0022630260791629553 0.001895434339530766 -0.003581281052902341 -9.386195451952517E-4 -0.004593630786985159 0.0038690760266035795 0.0010504818055778742 -0.00414261594414711 -0.004082175437361002 -0.0030991274397820234 0.00288827670738101 0.0037755270022898912 0.0027703188825398684 -0.00454535149037838 0.0028455404099076986 0.0018391143530607224 0.0023992706555873156 0.002641391707584262 -4.738039569929242E-4 -0.0023946058936417103 7.174215279519558E-4 0.0031001970637589693 -0.0010572728933766484 0.0019242969574406743 0.002603766741231084 0.0035691065713763237 -8.744342485442758E-4 -0.0023500642273575068 0.0019776520784944296 -1.7014284094329923E-4 -0.0024377598892897367 -0.005085068754851818 0.0027061132714152336 -1.1850870214402676E-4 0.004982398822903633 -0.003874905174598098 0.00399407185614109 0.0029249261133372784 6.876095430925488E-4 0.002414340153336525 0.0013169925659894943 -7.278328994289041E-4 0.0020911081228405237 0.0011799042113125324 -0.005434873513877392 0.003487552283331752 -4.1030616557691246E-5 -0.0020732618868350983 7.434983272105455E-4 -0.004944500047713518 0.0035737589932978153 -7.763164467178285E-4 -0.0019375205738469958 0.0023663698229938745 0.001678326167166233 0.004247696604579687 0.003932141233235598 -0.0021789453458040953 3.18164675263688E-5 0.001437605475075543
gene 0.00181001762393862 0.0015274380566552281 -0.0013176839565858245 -2.433457993902266E-4 1.568048755871132E-4 -0.0027610475663095713 -2.8508823015727103E-4 -7.455663580913097E-5 -4.224587755743414E-4 -4.8045074800029397E-4 -0.0036471013445407152 -0.002186537953093648 0.0035332469269633293 0.0017338708275929093 -0.003703388851135969 -0.0019073511939495802 0.005643046461045742 6.756981019861996E-4 -0.0012645488604903221 0.0028876769356429577 0.002994958311319351 0.002676791977137327 0.006493437569588423 -0.002870808355510235 -7.694930536672473E-4 -0.0019858067389577627 0.0029460445512086153 -0.001111832563765347 -0.004153427667915821 0.0047762589529156685 0.0018806381849572062 -0.004602757748216391 0.002726102015003562 0.0026804788503795862 -0.002355193719267845 -0.005625813268125057 -0.0014627729542553425 0.0042296904139220715 -0.0018825216684490442 0.0018828694010153413 0.0034538102336227894 7.630764739587903E-4 -0.002043862594291568 -0.002270872937515378 0.0012207874096930027 -0.0034074403811246157 -0.004282416310161352 -0.0023330836556851864 0.0036792592145502567 -4.751920059788972E-4 0.00418077502399683 -0.004885489121079445 0.004429243039339781 -0.0036753546446561813 -4.6575951273553073E-4 -5.713895661756396E-4 0.004579448141157627 -0.003120587905868888 0.0022075464949011803 -0.002855548867955804 0.0029309664387255907 -0.0014141829451546073 -0.005076569505035877 0.003481139661744237 0.0036709012929350138 9.26381500903517E-4 0.003752777585759759 0.003741096006706357 -0.005228080321103334 -0.006254145875573158 0.003028644248843193 -0.0018270330037921667 -0.0021263454109430313 0.0021904974710196257 -0.003991973586380482 -0.0022496231831610203 -0.0040100617334246635 -9.384863078594208E-4 -0.003506532870233059 0.0019121657824143767 0.0030079877469688654 -0.003778910730034113 -0.006314483471214771 -0.001986411865800619 0.001210205489769578 -0.002013636752963066 -0.0015251487493515015 2.3446243721991777E-4 -0.003897974034771323 0.002982021076604724 4.567733849398792E-4 -0.005859250668436289 -0.002837298670783639 0.0015930843073874712 0.0014118350809440017 0.0027184425853192806 0.0021962043829262257 0.0036828317679464817 0.00401392113417387 -0.002462242031469941
nanopore 0.004369743168354034 0.0019486484816297889 -7.558545330539346E-4 -0.004421667195856571 -0.004624559544026852 0.004658326506614685 0.0012901043519377708 0.00487524876371026 -0.004693848080933094 0.0012019721325486898 0.004000192042440176 -8.970763301476836E-4 -0.0011504412395879626 0.004768996965140104 -8.165821782313287E-4 -0.002896524965763092 -3.621721698436886E-4 0.0014488513115793467 -0.0044801863841712475 2.6406534016132355E-4 -0.0015606725355610251 0.0043865651823580265 0.0027306361589580774 0.004586865194141865 -0.004196826368570328 -0.002436696784570813 -5.566396284848452E-4 0.004079405218362808 0.0033977266866713762 -0.0014863532269373536 -0.0024906808976083994 6.200874922797084E-4 -0.004376445431262255 0.001625457196496427 -0.0024825374130159616 0.0017579878913238645 0.0016520291101187468 0.004702530801296234 0.004957334604114294 0.003931743558496237 0.004181473515927792 -0.0024773289915174246 0.0032059960067272186 0.0018967033829540014 0.004676302894949913 0.0033444317523390055 5.667690420523286E-4 0.0014383496018126607 5.410566809587181E-4 0.0017283179331570864 -9.37486911425367E-5 -0.0024745811242610216 -0.0014560370473191142 -5.575083778239787E-4 -8.488844614475965E-4 0.0040531158447265625 0.003187280148267746 -0.003450901247560978 0.001354664796963334 0.004218950867652893 -5.929772742092609E-4 0.0030202341731637716 0.004340668674558401 0.003539831144735217 0.0030467896722257137 4.382774932309985E-4 -0.003284021746367216 -0.002148208674043417 0.004567807074636221 0.0029427644331008196 -0.004814658313989639 0.001012398861348629 -0.002538700820878148 9.402228752151132E-4 0.0037080419715493917 -0.0040687196888029575 -0.0025189530570060015 -0.001232961774803698 0.002007764298468828 0.0019036332378163934 0.0046382867731153965 -8.629588992334902E-4 0.0016939948545768857 -0.0028033950366079807 -6.797357928007841E-4 -0.002041994594037533 -0.0019052718998864293 -0.0031725859735161066 0.0029010961297899485 7.04810256138444E-4 -7.126391283236444E-4 4.4352118857204914E-4 0.001096968655474484 -0.0014485460706055164 -0.002995916875079274 1.4831505541224033E-4 -0.004573545418679714 0.0010393231641501188 0.0035004192031919956 5.760688800364733E-4
genes -0.003725457936525345 -0.0026501291431486607 -0.00431721331551671 6.973808049224317E-4 0.001969702308997512 -3.234801988583058E-4 0.0035303919576108456 -0.0010156494099646807 -0.0018487203633412719 0.002248225500807166 -0.0023471247404813766 -0.003866039915010333 0.0034347071778029203 4.38384449807927E-4 -0.004963865969330072 -0.0022694224026054144 -1.4398264465853572E-4 0.0014628005446866155 0.004021973814815283 0.004107397049665451 0.0029911810997873545 0.003415459766983986 -0.0032951284665614367 0.0021315650083124638 -0.0019205908756703138 -0.0037132480647414923 -0.004643233958631754 -0.0034462304320186377 2.654240815900266E-4 -0.004152547102421522 -0.0014012303436174989 0.002600564621388912 -0.0037039248272776604 -0.003429405391216278 5.343601224012673E-4 0.0020515499636530876 0.004720137920230627 -0.004026611335575581 -0.001789534231647849 -0.0022987958509474993 7.849182584322989E-4 -0.003345408709719777 0.0021711308509111404 -4.063473897986114E-5 -0.002618081634864211 0.0047782184556126595 0.003248330671340227 -8.675499702803791E-4 -0.003782921005040407 -0.0012980009196326137 0.002519638743251562 7.417708402499557E-4 0.003094657091423869 -1.337119028903544E-4 -0.0032386856619268656 -3.559491306077689E-4 0.0033219680190086365 1.8387178715784103E-4 -3.4412904642522335E-4 -0.0016060732305049896 0.004816590342670679 -9.378068498335779E-4 0.0012852768413722515 -0.004168916027992964 0.0014120221603661776 0.0010784304467961192 -0.004219669383019209 0.005241632927209139 0.004287645686417818 -0.0036200613249093294 -0.004318540450185537 -0.0014565014280378819 -0.0026792739517986774 -0.004655924625694752 0.00418270705267787 0.0028665848076343536 -2.8268713504076004E-4 -6.164817023091018E-4 -0.0035862489603459835 0.004590406082570553 -9.725551353767514E-4 2.7306974516250193E-4 0.003949976526200771 3.447308554314077E-4 7.136848580557853E-5 0.0046353950165212154 -0.0032394961453974247 0.0019387137144804 0.0013009010581299663 -0.0010187603766098619 0.003346832701936364 -8.202798780985177E-4 0.0032421043142676353 -0.0015826757298782468 -0.0016607129946351051 -0.0016784485196694732 0.003606643294915557 -0.004578909371048212 5.670381360687315E-4 0.0024982322938740253
in 9.187085088342428E-4 -7.552193128503859E-4 -7.337868446484208E-4 -4.7970423474907875E-4 4.654985968954861E-4 -1.5810344484634697E-4 -0.003210874507203698 -0.006031392607837915 0.0025182035751640797 6.998976459726691E-4 -9.96248796582222E-4 0.005680711939930916 0.0015708301216363907 6.016074912622571E-4 -0.004594136960804462 -0.009093763306736946 -7.104114774847403E-5 0.00406683050096035 -0.0035795094445347786 -0.0038113677874207497 0.002161953132599592 -4.149178566876799E-4 6.429062923416495E-4 0.002616794779896736 -0.002814061241224408 -0.004672408569604158 0.00564919738098979 -0.002119276439771056 -0.003388408338651061 -0.005541514605283737 -0.00693693570792675 -0.0050431108102202415 0.0037832690868526697 -0.008874424733221531 -4.313515673857182E-4 -0.005781685002148151 -0.005029679741710424 -0.0015377345262095332 -9.773125930223614E-5 0.0027289707213640213 -6.532930274261162E-5 0.003052433952689171 -0.0012122713960707188 -7.345001213252544E-4 0.002489923732355237 0.0012708166614174843 -0.006027406081557274 0.005347624886780977 0.003905863966792822 -0.006806148681789637 -0.0013158005895093083 -0.003943740390241146 -0.002572860801592469 -0.0012881539296358824 -0.004234970081597567 -0.002237573964521289 0.003214577678591013 -0.0013187455479055643 -0.002839095192030072 -0.005653499159961939 0.004096310120075941 -1.815943542169407E-4 -0.003254493698477745 -1.6799817967694253E-4 -9.46145853959024E-4 -0.003120973939076066 0.002416071714833379 0.0011257516453042626 2.96945683658123E-4 -0.005471056327223778 5.725097798858769E-5 -0.0021648842375725508 -2.8329278575256467E-4 -0.003035348141565919 -0.0038345514331012964 -8.69167794007808E-4 0.005975399166345596 0.0045387027785182 9.357326780445874E-4 0.001583741046488285 -8.865357376635075E-4 0.0025876311119645834 -0.0015477585839107633 1.1338173499098048E-4 9.1690564295277E-4 -0.0013450093101710081 -0.001979921944439411 -9.948814986273646E-4 0.006340960972011089 -0.0012203420046716928 0.005548139568418264 -0.003378197317942977 0.0012546754442155361 -0.0027620752807706594 0.005162389017641544 -6.988549139350653E-4 -7.949619321152568E-4 0.005102341994643211 0.006297529675066471 -0.0012176336022093892
is 7.977872155606747E-5 0.003853808157145977 0.006590188480913639 -0.0016818128060549498 -0.003460983280092478 0.0095139155164361 -0.0012492034584283829 -0.0021068539936095476 0.0077833738178014755 -2.1297085913829505E-4 0.007152601145207882 9.410631028003991E-4 3.934084452339448E-5 0.003482100088149309 -0.001967612188309431 -0.0037927899975329638 0.005887304432690144 0.0012283698888495564 0.00323556293733418 -0.003925083205103874 -6.278260261751711E-4 0.002848119707778096 0.006550145801156759 0.0032163660507649183 0.004206537734717131 -0.006248467601835728 0.0018470784416422248 2.416903298581019E-4 -0.0051661767065525055 7.36631394829601E-4 0.0010086873080581427 -0.003591768443584442 0.0039051752537488937 -0.01129839662462473 -0.003908385057002306 -0.001628470839932561 -0.0023455871269106865 -0.004340182524174452 0.00412803003564477 0.006878756918013096 0.0019708392210304737 -1.5210453420877457E-4 5.845276173204184E-4 -0.0023720774333924055 4.4631390483118594E-4 0.0018860956188291311 -0.007043333258479834 0.005378137342631817 0.0028164254035800695 4.389173409435898E-4 -0.0012951684184372425 -5.776985199190676E-4 -5.48536132555455E-4 -2.3312217672355473E-4 0.002530810423195362 0.0022884635254740715 0.004876956343650818 -0.005524772219359875 -0.005409243982285261 -0.0018459230195730925 0.006255084648728371 -0.004754498600959778 -0.006577311083674431 -0.0035866170655936003 0.0035985473077744246 -0.005879080388695002 -0.006496391259133816 0.0029277855064719915 -0.0033438473474234343 -0.0047629522159695625 -0.0051979911513626575 -9.068018407560885E-4 -0.0023018382489681244 -0.0031751433853060007 -0.0028695655055344105 -9.07251494936645E-4 -0.0017783596413210034 -0.0018561342731118202 -5.658764857798815E-4 -0.001660586684010923 0.006109180394560099 -0.004638281185179949 -0.005400093737989664 -1.4091604680288583E-4 -0.0015155946603044868 -0.008017491549253464 0.004648987669497728 -0.005847129970788956 0.004503773991018534 -3.271358727943152E-4 0.008505845442414284 -0.004972145427018404 -0.004927163943648338 0.006022134330123663 -0.0036377469077706337 -0.004530896432697773 0.002150479704141617 -0.002092791721224785 0.007104787044227123 0.005363623611629009
it 7.935280445963144E-4 -0.002155873691663146 0.005000803153961897 5.156946135684848E-4 -0.002470680745318532 -0.003364476840943098 7.510797586292028E-4 0.00307666789740324 -0.0026517678052186966 -0.004626335110515356 -0.0028628078289330006 -0.002276313491165638 -3.3762591192498803E-4 -0.004138911608606577 -0.0026468108408153057 -0.0012409958289936185 -0.002681292127817869 0.0011648850049823523 -0.002795559586957097 0.004426136612892151 0.0030488367192447186 0.003858180483803153 0.0013517402112483978 -0.003744959132745862 -0.004438641481101513 -0.001306386198848486 -0.0018238431075587869 -0.00442897854372859 0.004073679447174072 -0.0012787324376404285 0.001139352680183947 0.002210805658251047 0.005128818564116955 1.4329972327686846E-4 -0.003755515208467841 0.0011366778053343296 -0.0023017774801701307 -0.003241865197196603 -0.0019022992346435785 0.0020368993282318115 -0.002744537079706788 -2.731133427005261E-4 -0.0024230550043284893 -7.24685552995652E-4 0.0037751412019133568 -2.362701197853312E-4 -0.0048489924520254135 4.623427812475711E-4 -0.0012366657610982656 -0.004726952873170376 -8.122139843180776E-4 -0.0017448189901188016 -0.0025005794595927 -0.004177747294306755 0.001269557629711926 0.0019214743515476584 0.004075998440384865 -0.0013703990262001753 3.6128907231613994E-4 -0.0018198636826127768 0.0026476948987692595 -6.337053491733968E-4 -1.4554819790646434E-4 -0.004467859398573637 -0.0014204229228198528 -0.0034836845006793737 0.0017499544192105532 0.0023393570445477962 3.244033723603934E-4 0.001777058350853622 -0.004271525423973799 -0.0051244585774838924 -0.001699993503279984 -0.004633348435163498 -0.0015112670371308923 0.0045802295207977295 -0.003631895175203681 8.61095730215311E-4 0.0024222643114626408 -0.0020242801401764154 6.125689251348376E-4 -1.6513800073880702E-4 -0.0037556036841124296 0.004777968395501375 0.004345749504864216 -1.4166136679705232E-4 0.004878273233771324 -0.002628662157803774 0.0047868466936051846 0.002220550552010536 0.005365713499486446 -0.0027845583390444517 0.003612254513427615 -0.0014811197761446238 -0.004159015603363514 -3.751405165530741E-4 0.002189462073147297 -0.002403765916824341 -0.0015580701874569058 -5.233193951426074E-5
analysis -0.002849338576197624 -0.00367551576346159 0.00349003029987216 -0.0018331753090023994 -0.004634946119040251 0.001963947666808963 0.001182920765131712 -0.0029867026023566723 -4.52689389931038E-4 3.4965251688845456E-4 0.003209505695849657 2.4318900250364095E-4 0.0020073149353265762 0.001531079993583262 -0.005223213694989681 -0.002291915938258171 2.135379472747445E-4 0.004596726503223181 0.0019385904306545854 -0.004354170523583889 0.0031687647569924593 -0.0012676843907684088 4.931121293338947E-5 2.616654383018613E-4 0.0010080954525619745 -0.004285075236111879 -1.1906158033525571E-4 0.0011776563478633761 -0.0044725132174789906 -0.0025990495923906565 -0.004445357248187065 -0.005244728643447161 -3.436938568484038E-4 -0.0024587372317910194 0.002085851039737463 0.001508984831161797 -6.226819241419435E-4 -0.003305281512439251 0.0034831520169973373 0.0059350114315748215 -0.005213419906795025 -0.004185456316918135 -0.001831945264711976 -0.0016820264281705022 -3.3522024750709534E-4 -0.0020438863430172205 -7.621637196280062E-4 7.881597266532481E-4 0.0042206523939967155 -0.0030968154314905405 -0.003334066132083535 0.003288086038082838 -0.001774489413946867 -0.001363983377814293 6.343638524413109E-4 8.18627595435828E-4 -0.002743193879723549 0.003931166138499975 -0.0032753227278590202 2.0159970517852344E-5 -0.0013293750816956162 -0.0023118790704756975 -4.8724544467404485E-4 -0.003851063549518585 -0.0031317928805947304 -0.004261368419975042 -5.920793628320098E-4 0.005310620181262493 -4.687955661211163E-4 -0.0052283527329564095 -0.0010124274995177984 7.360962335951626E-4 -0.0034806521143764257 -0.004606995265930891 0.0033488499466329813 -0.004272154998034239 -0.004351729527115822 -0.002186681842431426 -0.0034511175472289324 0.003997455816715956 -0.0032186685130000114 -0.0012840158306062222 -0.005129253026098013 0.0015977576840668917 -1.655520172789693E-4 -0.0026949262246489525 -0.0029032398015260696 0.002465573139488697 0.0025532550644129515 -7.718541310168803E-4 0.0017426483100280166 0.0019495442975312471 -0.001565292477607727 -0.0015102657489478588 -2.7525611221790314E-4 7.486585527658463E-4 0.0032785984221845865 -0.0046300990507006645 0.0030878896359354258 0.0023878321517258883
an -5.333477747626603E-4 -0.0016476023010909557 -0.0013660936383530498 9.205937385559082E-4 -0.001066910452209413 0.004381515085697174 0.0019741866271942854 9.681587107479572E-4 -0.0034812467638403177 3.812939685303718E-4 0.004998689983040094 0.004618224687874317 1.2000320566585287E-4 0.0050905426032841206 -9.867659537121654E-4 -0.0012290437007322907 -0.0025425737258046865 0.0014697221340611577 -4.8171530943363905E-4 0.004509368445724249 -0.002045082626864314 -2.4724491595407017E-5 -0.002137497067451477 0.004969554487615824 0.0023823657538741827 -0.006341686937958002 0.002943673636764288 -0.004002563655376434 -3.226486733183265E-4 -0.002052052179351449 -0.004939521197229624 -0.0030867040622979403 -0.0013783489121124148 -0.0035045049153268337 -0.003658410394564271 -0.0022274430375546217 -4.0938702295534313E-4 -4.449755942914635E-4 -0.004326588474214077 -7.1358447894454E-4 -0.002083117375150323 -0.004355750046670437 0.0034240572713315487 -0.0029149469919502735 -1.4152722724247724E-4 -0.0011939964024350047 -0.0034249795135110617 0.003909511025995016 0.003575089853256941 -0.003550912020727992 -6.871565710753202E-4 -0.004480530042201281 -0.0016976111801341176 0.003319903975352645 -2.2294986410997808E-4 0.0034473815467208624 3.860889992211014E-4 6.236890330910683E-4 -0.0012613215949386358 1.314039109274745E-4 0.0030469431076198816 -0.003543216735124588 -0.004321693908423185 -0.0017401212826371193 0.005657882895320654 -0.0023511392064392567 4.388244415167719E-4 0.004611078184098005 -0.0049112639389932156 -0.002815139712765813 -0.0048357401974499226 -3.522545739542693E-4 -0.005345690064132214 0.0027114402037113905 -0.0031328971963375807 0.0049596321769058704 0.004252659622579813 -0.0019554474856704473 0.0013665886363014579 0.0048561254516243935 0.0019507749238982797 0.002974852453917265 -0.001454153098165989 -0.0010745404288172722 -0.002149295061826706 0.0016592786414548755 0.00124014460016042 -0.002073409268632531 0.00528921140357852 -0.001340846298262477 0.005766449961811304 -0.003478528931736946 -0.0018943949835374951 5.636935238726437E-4 -0.001073927152901888 -0.0017543125431984663 0.0013492164434865117 2.6630802312865853E-4 0.0032020225189626217 0.0038986867293715477
quality 7.026514504104853E-5 -0.004515503533184528 -0.004460311960428953 -0.004437567200511694 9.273408795706928E-4 -0.004204630386084318 0.005001626908779144 -0.003359531983733177 -0.001694719074293971 -0.004370248876512051 0.0037372158840298653 -2.6989838806912303E-4 0.0037699358072131872 4.52620122814551E-4 0.0011761606438085437 0.003719436237588525 0.0019324534805491567 -0.0025819307193160057 -6.466381601057947E-4 0.0036009224131703377 0.003409250173717737 0.001440719817765057 0.0027749286964535713 0.00408960459753871 0.0041521028615534306 -0.0050607831217348576 0.001755070174112916 -0.002949175424873829 -7.499572238884866E-4 0.00474951695650816 0.0035478193312883377 9.2185044195503E-4 0.0030932801309973 -2.5334222300443798E-5 -0.003638123394921422 0.003019833704456687 0.004265023395419121 0.0010985849658027291 -9.82276163995266E-4 -2.696510055102408E-4 -0.003698508022353053 0.0029023929964751005 0.003291193163022399 0.0030066517647355795 -0.003343381220474839 2.2657838417217135E-4 -0.00469738757237792 -0.0031328073237091303 -0.00471286429092288 -0.0013144641416147351 0.002236450556665659 0.0031057579908519983 -0.0011100789997726679 -0.0038278414867818356 0.004420420154929161 -0.00305044068954885 0.0013471374986693263 5.665463395416737E-4 -5.331788561306894E-4 -0.002597871934995055 0.0035054865293204784 -3.8428606785601005E-5 -0.003718647640198469 0.001678470871411264 0.0014041460817679763 -0.00336222886107862 4.676771641243249E-5 0.004985505249351263 -0.0010310484794899821 0.002156814094632864 -8.789597195573151E-4 -0.003934752661734819 0.002820491325110197 -0.0023239762522280216 9.769340977072716E-4 0.001698802225291729 0.004364743363112211 6.507260259240866E-4 -0.003564919577911496 0.004831756465137005 -4.516375483945012E-4 0.004500125534832478 -0.0014276605797931552 -1.9698622054420412E-4 -0.005024008918553591 0.002898293314501643 9.171434212476015E-4 0.003417892614379525 0.0028945794329047203 0.0046871439553797245 -0.004043844528496265 -0.0017611092189326882 0.0019031802657991648 0.0037028745282441378 0.004122582264244556 -0.0012489636428654194 -0.0029822273645550013 -0.0043556783348321915 0.00346960942260921 -6.289358134381473E-4
difference -0.0031382290180772543 0.004839498549699783 -0.0031649505253881216 -0.001946500618942082 0.003880334785208106 0.004891915712505579 0.004139598459005356 -6.122654303908348E-4 0.002461837138980627 0.001826660125516355 0.00233679311349988 0.004041641019284725 -0.0016209790483117104 0.002384905004873872 -0.005879340227693319 -0.006536169908940792 -0.002384675433859229 -0.0033045108430087566 -2.827478456310928E-4 -8.969811606220901E-4 2.57381092524156E-4 -0.004135933239012957 -0.0022718668915331364 -0.004907191265374422 -9.304816485382617E-4 -0.00683056702837348 -0.0013324625324457884 6.273839971981943E-4 -0.006378287449479103 -9.034400864038616E-5 -0.0012006998294964433 6.329423631541431E-4 0.0014520541299134493 -0.006548426114022732 -0.003984761890023947 -0.00410402100533247 0.005414885003119707 0.0012411876814439893 3.796122327912599E-4 0.002870366210117936 0.004059297498315573 -0.0020714751444756985 0.0032247898634523153 0.00565656553953886 -0.005814827978610992 0.0035350346006453037 2.923399551946204E-5 0.0032341640908271074 -0.003656635759398341 -0.001418778207153082 0.0015164604410529137 -0.003293943591415882 -0.001912789884954691 -0.0033176804427057505 -0.004299011081457138 0.0011871260358020663 0.0012297338107600808 -0.003601314499974251 -0.0046758404932916164 0.002805780153721571 0.0012738369405269623 -0.003352504223585129 0.003076412482187152 -0.004979770164936781 6.053651304682717E-5 -0.004336358048021793 0.0037602069787681103 -0.0022556851617991924 -0.002213554922491312 -9.185485541820526E-4 0.003445494221523404 -0.001758200814947486 -0.004664035513997078 0.004147070925682783 -0.002203729236498475 0.003299509175121784 -0.003787134774029255 0.004183998331427574 -0.002996359020471573 0.003078614827245474 3.314470814075321E-4 0.0037881394382566214 7.500339415855706E-4 0.004175085108727217 -0.006708788685500622 -0.0011633072281256318 0.005763329565525055 -0.006066338624805212 3.797943063545972E-4 -0.002700512995943427 0.005769481882452965 0.003400308545678854 -0.0037904921919107437 0.0017545988084748387 -0.002757227048277855 -0.005133928265422583 0.0037511871196329594 0.0019848172087222338 -6.598233012482524E-4 0.0021830606274306774
compare 0.002348892856389284 -0.0015076096169650555 0.0032605414744466543 -1.53768589370884E-4 -7.470859563909471E-4 -0.003523555351421237 0.0044223773293197155 2.882811240851879E-4 0.002848143456503749 4.885451635345817E-4 8.782097138464451E-4 -0.00240940204821527 -0.0022538378834724426 -0.004298859275877476 -0.0036345254629850388 -0.002189740538597107 1.119907246902585E-4 0.0045849839225411415 0.004801956471055746 0.002686475869268179 0.004158652853220701 -0.0042106639593839645 0.0034947998356074095 -0.0032493872568011284 0.0041132522746920586 0.001681198482401669 6.165164522826672E-4 0.004361658822745085 0.0018016325775533915 -0.0015845142770558596 0.001007587881758809 -0.0025436733849346638 -0.001715684775263071 1.0900235793087631E-4 6.187718245200813E-4 3.7776509998366237E-4 -1.352186081930995E-4 0.0039969924837350845 0.004906451795250177 -0.0025334167294204235 -0.0037022726610302925 -1.1567784531507641E-4 -0.001785525237210095 0.00416082888841629 0.0037156040780246258 -0.001314450055360794 -5.869785090908408E-4 -0.0036389657761901617 0.003611163701862097 0.002225341275334358 -0.002998596988618374 -0.004337911028414965 0.0031023863703012466 0.002904786728322506 0.0029641459695994854 4.6743889106437564E-4 1.7204211326316E-4 0.0013596323551610112 -0.004873477853834629 -5.218544974923134E-4 0.003178374143317342 0.002506020711734891 -0.004675580188632011 0.0028785718604922295 0.002099407371133566 0.002455448266118765 0.0035442952066659927 -0.0039015328511595726 0.0025051382835954428 -2.0474063057918102E-4 -0.002967516425997019 0.0018936507403850555 0.001026579411700368 0.004998913034796715 0.004589962773025036 -0.004731298424303532 -0.004282960668206215 -0.003307282691821456 0.0013939209748059511 -0.003571415552869439 -0.0021209316328167915 0.0014863538090139627 0.001260498072952032 -0.002238781191408634 -0.0023730096872895956 -0.002211936516687274 -0.0024122456088662148 0.0028554140590131283 0.003261989913880825 0.004330047871917486 -0.002371229464188218 -0.004266330040991306 -0.002804958261549473 -3.148058895021677E-4 -0.00138783548027277 0.004792756401002407 -0.0018356950022280216 -0.0020058846566826105 -0.002320165280252695 -0.0044805812649428844
be -0.004574200138449669 0.0036451781634241343 -6.330982432700694E-4 0.002298495499417186 -0.00460413470864296 0.0022717684041708708 6.189639680087566E-4 -0.0043236385099589825 -1.437213650206104E-4 0.003268249100074172 -0.004138743504881859 -0.0029043839313089848 0.003734821453690529 0.0022779186256229877 0.003754098666831851 -0.002947393571957946 -0.003826894797384739 0.0030767624266445637 -0.0037870770320296288 -0.002957843244075775 -0.0015821520937606692 -0.0010220976546406746 -0.003403452690690756 -9.742602123878896E-4 0.0017570701893419027 0.0011107501341030002 0.004413422662764788 -0.003902050666511059 -0.0034984012600034475 -0.0024564757477492094 -0.004799037240445614 -0.0012223433004692197 -6.588512915186584E-4 0.0029772392008453608 7.071843720041215E-4 -0.001267570536583662 -0.0026162422727793455 -0.0025496291927993298 0.004166152328252792 0.0043162209913134575 0.0010467066895216703 5.411854363046587E-4 -6.028192583471537E-4 -0.0039661480113863945 0.004759506788104773 0.0033962344750761986 0.0036014202050864697 -0.0017181066796183586 -0.002810779493302107 6.933023105375469E-4 0.004081644583493471 0.004418437369167805 0.004977489355951548 -0.005036815069615841 -0.0030568207148462534 0.0022484990768134594 0.0013105320977047086 9.756663348525763E-4 -1.4893879415467381E-4 -0.0030086811166256666 0.003091108985245228 7.776689599268138E-4 0.002568801399320364 -8.673755219206214E-4 -0.0023568598553538322 -0.0013669085456058383 0.003289711195975542 -0.0024844915606081486 0.004592013545334339 1.3957022747490555E-4 3.0846885056234896E-4 0.0016025605145841837 0.0010992655297741294 0.0026438357308506966 0.0035388669930398464 -0.0046136993914842606 0.004373479634523392 3.502194012980908E-4 -0.001268784748390317 2.7851987397298217E-4 0.004262588918209076 -0.004958337638527155 7.931632571853697E-4 -0.004777389578521252 -0.004502944648265839 0.00296511291526258 -0.0027148558292537928 -0.004486746154725552 9.869212517514825E-4 -0.001676480402238667 0.003270162036642432 0.0011617600684985518 -3.7946837255731225E-4 0.0013908037217333913 -0.0011473626364022493 2.576886327005923E-4 -0.0031456835567951202 -0.004865356720983982 0.00215297844260931 0.001916529145091772
matrix -0.0037699744571000338 0.0010175674688071012 0.004119609948247671 -0.0029864672105759382 -2.2807717323303223E-4 -0.003487710142508149 -9.532301191939041E-5 -0.002866502618417144 0.0043776980601251125 0.002851961413398385 0.0010783469770103693 0.0016688393661752343 -0.0010473268339410424 0.004707056563347578 8.977212128229439E-4 0.0020834202878177166 -0.004232828505337238 0.0047930036671459675 0.0021592192351818085 0.0020673105027526617 0.001380742876790464 -1.33752531837672E-4 -0.0020184949971735477 0.005096973851323128 -0.004135940223932266 0.0023986033629626036 0.0012421832652762532 5.885531427338719E-4 0.0016216988442465663 -0.004007435403764248 0.0035132451448589563 -5.181102314963937E-4 -0.003981372807174921 0.002801520051434636 0.002090665278956294 2.546696341596544E-4 -0.0014022865798324347 0.004394959192723036 -0.0010672243079170585 0.005604102276265621 -0.0032565866131335497 0.0021382055711001158 -0.0032796936575323343 -9.59699391387403E-4 -0.004907793365418911 -0.0037007259670645 -3.360281407367438E-4 0.003379721660166979 0.003368564648553729 0.0028119701892137527 0.001389407436363399 0.0029537691734731197 0.0024093869142234325 0.002069890033453703 -0.001961065223440528 0.002720598829910159 0.001822884427383542 -0.003227542620152235 -0.0028078907635062933 -0.002873414196074009 -0.0037424711044877768 5.19868299306836E-5 0.004427523352205753 4.4986791908741E-4 -0.002116275019943714 -0.003538470482453704 -0.0020546158775687218 -0.003362635150551796 -0.0013200680259615183 -8.789989515207708E-4 -0.003292039269581437 0.0020714630372822285 0.0035301523748785257 -0.002949488814920187 0.0027684858068823814 2.1232028666418046E-4 5.064617143943906E-4 0.004041147418320179 -5.862503312528133E-4 2.078242541756481E-4 0.0038178761024028063 -0.003963071387261152 0.0041310666128993034 0.002457223366945982 9.722393588162959E-5 -0.0016502441139891744 0.002976556308567524 -0.004274348262697458 0.0021166913211345673 -0.0049882922321558 -7.464864756911993E-4 0.0025787376798689365 0.004083844367414713 -0.004118158016353846 0.003959458786994219 -0.004356438759714365 0.003106186166405678 9.558919700793922E-4 3.963816852774471E-4 -5.903757992200553E-4
cell -0.004284560214728117 -2.0970741752535105E-4 -3.1694697099737823E-4 -0.003646497381851077 4.145727143622935E-4 0.0012886172626167536 6.037277635186911E-4 -1.306499761994928E-4 0.0035625509917736053 0.0016507755499333143 -5.315821035765111E-4 0.004149092826992273 -3.184104571118951E-4 -0.0022074708249419928 -0.0029508552979677916 6.737821968272328E-4 -0.004203819204121828 -0.003935348242521286 0.004046964459121227 -0.0010824159253388643 0.0021150526590645313 -0.0035253381356596947 -9.486263152211905E-4 0.0047888667322695255 1.373160193907097E-4 0.0030918053817003965 -4.5843221596442163E-4 -0.004462022799998522 0.0017537380335852504 0.0034729777835309505 0.0015752294566482306 0.004649266134947538 0.004524098709225655 0.002832927042618394 -0.002513821003958583 0.001845728256739676 -0.004090049769729376 0.0017881229287013412 -0.004185733385384083 0.003346440615132451 0.004048600327223539 0.00483857374638319 0.0027309225406497717 0.004984874743968248 -0.004552093334496021 0.0033924661111086607 0.004668261855840683 0.003848265390843153 -1.0454701259732246E-4 -0.0022900477051734924 -0.003918088506907225 0.001515576266683638 0.003024458419531584 0.0023868626449257135 -8.198840077966452E-4 0.0029389839619398117 0.0010791497770696878 0.002179270377382636 0.0033963967580348253 -0.0010156123898923397 -0.0023667102213948965 0.003899111645296216 6.551123806275427E-4 0.004728744272142649 -0.0012049003271386027 0.003911719657480717 -2.276886225445196E-4 0.0021649959962815046 -0.0017477005021646619 -3.4412299282848835E-4 -0.004804746713489294 0.003989992197602987 2.1670933347195387E-4 -0.0020459808874875307 8.89775255927816E-5 5.223815678618848E-4 -0.0017449334263801575 7.465587259503081E-5 -0.0034484504722058773 4.4386874651536345E-4 -0.0014264545170590281 -0.003324467223137617 -4.5484118163585663E-4 -0.002626646775752306 0.0015538106672465801 0.004306604154407978 -0.004078381694853306 0.0020315167494118214 0.0034110923297703266 -0.0020119119435548782 0.0011651725508272648 0.00403093034401536 -0.0041638645343482494 -0.0018234547460451722 0.004774227738380432 -0.0023868249263614416 0.0019070931011810899 0.004885106813162565 0.001987388590350747 -0.0022251883056014776
sequences -0.0037911823019385338 -0.003716423176229 -9.508110233582556E-4 0.0019966880790889263 -0.003915622364729643 -0.002799579408019781 0.0026462944224476814 0.002790408907458186 -1.6960728680714965E-4 -0.003508172696456313 0.0014483318664133549 0.004597677383571863 0.001406360068358481 6.612392025999725E-4 0.002051456132903695 0.0011936594964936376 0.0044439989142119884 0.001970621757209301 0.0034696452785283327 -0.00307129742577672 -6.635590107180178E-4 -0.0010655168443918228 0.004325069021433592 -0.00384702580049634 -0.0012208441039547324 -0.006188929080963135 5.158432759344578E-4 0.003967797849327326 -0.0012718313373625278 0.0018111846875399351 0.002203430747613311 0.0027234829030930996 -7.659869152121246E-4 -0.002842046320438385 -0.0029319084715098143 -0.001540201366879046 -0.00430220365524292 -0.002180666895583272 -0.002263507107272744 -5.470772739499807E-4 -0.005726898554712534 0.00394584471359849 -0.0030471826903522015 -0.003282210323959589 -0.0022007350344210863 0.003796593053266406 -0.001414962112903595 0.004148450214415789 -9.204632369801402E-4 0.004130068235099316 -0.0025648062583059072 0.003383687697350979 -7.911789580248296E-4 0.003180976025760174 -0.0032578969839960337 0.0019704794976860285 0.003745210589841008 -0.005392634309828281 -0.0011869228910654783 -0.003960061352699995 0.002233283594250679 0.001829917193390429 0.0027574654668569565 -0.004030670505017042 0.0036259666085243225 -0.004953282885253429 1.2449761561583728E-4 0.0031986853573471308 -0.005503619089722633 -0.0036501253489404917 0.002344926819205284 0.0024840491823852062 -4.008346004411578E-4 0.004569869488477707 -0.003344070864841342 -1.7828235286287963E-4 0.0031211322639137506 0.00397874042391777 0.003204682609066367 0.0028257097583264112 -0.0026631273794919252 -4.157191142439842E-4 -0.0038843157235533 0.003522957907989621 -0.0029204227030277252 -2.2362539311870933E-4 0.0026055038906633854 -3.1538913026452065E-4 0.0026083693373948336 -4.2350636795163155E-4 0.002079990226775408 0.0033415399957448244 -0.0021285326220095158 0.004489030689001083 0.0018710029544308782 0.002304469933733344 0.003204487496986985 -1.9418340525589883E-4 0.003414093516767025 0.0030348035506904125
tools 0.002304665045812726 5.963166040601209E-5 -0.004520497750490904 -0.0020456009078770876 -0.0012791473418474197 0.002988532418385148 -0.0038344915956258774 0.0011909729801118374 -0.002784121548756957 0.0030154429841786623 5.458558443933725E-4 0.0017076135845854878 2.3915381461847574E-6 -6.057928549125791E-4 -0.004162912722676992 0.004712575580924749 0.004601378459483385 -0.0017640384612604976 -0.0022632258478552103 0.004746164195239544 4.0645102853886783E-4 -0.0025398293510079384 0.002393577015027404 -0.003153974423184991 -0.0023253189865499735 0.004833022598177195 -0.0027479578275233507 0.004753291141241789 0.003736690618097782 0.0030391293112188578 -1.4093489153310657E-4 4.813895793631673E-4 0.0015829032054170966 -0.004290676675736904 0.00415791105479002 0.0020486421417444944 -2.9396932222880423E-4 -0.0021976884454488754 8.506146841682494E-4 -8.59559397213161E-4 1.3834152196068317E-4 -0.0035433650482445955 6.641843356192112E-4 -0.002939595142379403 -0.0048478469252586365 0.002465717261657119 0.0028651198372244835 0.004760845098644495 -5.008287262171507E-4 7.757924613542855E-4 -0.004368851892650127 -0.0034436159767210484 -0.0025709220208227634 -0.0032906136475503445 -0.0010701750870794058 -0.0015057848067954183 -0.0028446330688893795 -0.0044981008395552635 0.0016243306454271078 0.0011681279866024852 -0.0031816947739571333 -0.002843688940629363 -4.901291686110198E-4 0.0013004093198105693 0.00253640441223979 -0.0024350271560251713 7.336574490182102E-4 -5.857691867277026E-4 -0.004742084536701441 -0.004052954725921154 0.0028608981519937515 -0.003998770844191313 -0.0015102785546332598 0.00435847882181406 -0.0017894936027005315 0.004549616947770119 -5.882473778910935E-4 -0.0020724907517433167 -7.38905044272542E-4 0.0010440632468089461 0.003427219344303012 -0.001497452612966299 0.0034161775838583708 -0.0026169992052018642 -2.238088200101629E-4 0.003678780049085617 -0.003970510326325893 0.004688257351517677 0.0012346106814220548 0.003058845642954111 0.0032304769847542048 0.0024673566222190857 0.004305584821850061 3.679244764498435E-5 -0.003842208068817854 1.0422311606816947E-4 -0.0024066173937171698 -6.933489348739386E-4 1.837628078646958E-4 -9.914322290569544E-4
two -6.348371971398592E-5 -0.0024649547412991524 -0.002632043557241559 0.0011915751965716481 -0.0033504078164696693 0.0020607407204806805 -3.450961667113006E-4 0.004123210906982422 -9.604822844266891E-4 -0.0012046321062371135 0.003052059095352888 5.187320639379323E-4 -5.306637613102794E-4 0.0033304535318166018 -0.0025227610021829605 -0.00110407336615026 0.002795341657474637 4.699566343333572E-4 -0.0020480682142078876 -0.00222365977242589 5.578575655817986E-4 -0.003019130788743496 0.0010595805943012238 -0.003784785745665431 -0.002124676015228033 -0.003574534086510539 2.003526024054736E-4 0.0019036352168768644 8.849119767546654E-4 8.312917198054492E-4 -0.0030213436111807823 2.2668984456686303E-5 -0.004374682437628508 -0.0028098493348807096 -0.0015956396237015724 -0.0014667687937617302 -0.0025407150387763977 0.0021760191302746534 0.0029360537882894278 0.0024639118928462267 0.004348471760749817 0.0025770068168640137 0.0047568087466061115 0.003553709015250206 -1.0679404113034252E-5 6.710363086313009E-4 -0.004332718439400196 0.0019305894384160638 -0.0015124956844374537 5.608269711956382E-4 -9.340077522210777E-4 -0.004780146759003401 0.0032990232575684786 0.0037678766530007124 0.004966537933796644 0.004306383430957794 -0.004132494796067476 -0.003327741753309965 0.004196669906377792 0.0024627496022731066 -0.004806827288120985 0.0013511811848729849 0.004972181748598814 -0.0024823166895657778 0.003364753443747759 0.0031822393648326397 -0.004825290758162737 -0.0013419226743280888 0.0018374650971964002 0.004365004599094391 -0.0031862519681453705 0.004201796371489763 0.001677348162047565 7.368532242253423E-4 3.1792878871783614E-4 -0.0018220797646790743 0.003862065728753805 -1.7999760166276246E-4 -0.004391256254166365 -0.002217305125668645 0.0018569346284493804 0.002951773116365075 0.0030353369656950235 -0.0037509703543037176 0.002085410989820957 -7.16543581802398E-4 -9.499208317720331E-6 -0.00139422167558223 -0.004245117772370577 -8.580267895013094E-4 -0.0024733885657042265 -2.4761688109720126E-5 8.568007033318281E-4 -0.004570006858557463 0.002192409010604024 0.0034655220806598663 -0.003552601672708988 -0.0032067124266177416 0.0046420590952038765 0.0013433241983875632
long 0.004311046563088894 0.005814750678837299 0.0014888544101268053 0.0044749416410923 0.00136378884781152 -0.0034890936221927404 9.198248153552413E-5 -0.001475649420171976 0.0012396794045343995 1.2174875155324116E-4 8.581585716456175E-4 0.00402906583622098 -0.0016805848572403193 0.003099034773185849 -0.004432004876434803 0.0012947606155648828 0.0037271822802722454 0.0024550165981054306 0.0014102635905146599 -0.00412412453442812 -0.004745815880596638 0.001139802043326199 0.002872675424441695 0.00551860174164176 0.003985862713307142 -0.0026255319826304913 0.005192986689507961 -0.0010688138427212834 0.002328811679035425 -0.004656713455915451 0.0025878362357616425 -0.002095971954986453 -0.0023528244346380234 0.0019917304161936045 0.004852072801440954 -0.0010411416878923774 -0.002825401024892926 -0.0027299567591398954 0.0045301890932023525 8.794610621407628E-4 8.491376502206549E-5 0.004677611868828535 -0.0031682876870036125 0.003352934494614601 0.0015336822252720594 -0.0018005475867539644 0.004213324747979641 -0.0017543372232466936 0.0023296254221349955 -0.0020120199769735336 0.0022011185064911842 -0.0013691039057448506 -0.0019177317153662443 0.0013337248237803578 0.004718917887657881 0.0013009413378313184 0.001444807625375688 0.0021216808818280697 -0.002907718298956752 -0.0027491517830640078 2.2097474720794708E-4 -0.003510484006255865 -8.748903637751937E-4 0.0040536681190133095 0.0029735907446593046 0.0015003682347014546 6.549964309670031E-4 0.0037374221719801426 -0.0021053864620625973 -0.00453860592097044 -0.0024825776927173138 -0.0040662516839802265 -0.0023941246327012777 -0.002735334215685725 0.0032496063504368067 -9.648522827774286E-4 0.003503041574731469 0.0048405881971120834 0.0016418047016486526 -0.0036543323658406734 -0.0024394607171416283 -9.82905738055706E-4 0.0011497483355924487 0.0044681960716843605 0.004051524680107832 -0.0043223523534834385 -0.003135124919936061 -0.0011652198154479265 -0.0039743767119944096 -4.0784518932923675E-4 0.002546996343880892 -0.005138115957379341 -0.003979355562478304 0.003391542937606573 -0.001948369201272726 -0.0010048783151432872 -0.00331030017696321 -0.001396173145622015 -0.002547787968069315 -5.705120274797082E-4
fasta 1.909268758026883E-4 0.001518361852504313 0.005355126690119505 0.003629390150308609 8.190043154172599E-4 -0.0014295736327767372 0.002636921126395464 0.002992655150592327 -0.0034551704302430153 0.0011136099928990006 0.004793913569301367 8.019859087653458E-4 -2.152607630705461E-4 -0.002643741900101304 -0.004513403866440058 -0.005643712356686592 -0.002691940637305379 -0.0025389213114976883 -0.004589308984577656 0.001313976594246924 -0.0017963427817448974 -0.003199749393388629 0.005425646901130676 3.5451308940537274E-4 0.0030578544829040766 0.0017088035820052028 0.0016052001155912876 -0.0022175658959895372 -0.0032519949600100517 -5.301872733980417E-4 -0.002495373832061887 -0.0024814079515635967 -0.0013101156800985336 -0.00588094349950552 -0.004750201478600502 -1.782083563739434E-4 0.0014938751701265574 -0.004654863849282265 -6.414451636373997E-4 -0.0024476409889757633 0.002277319086715579 -0.004270320758223534 1.8100719898939133E-4 0.0017982532735913992 -0.002975551877170801 9.519160375930369E-4 -0.005307703744620085 -9.397334069944918E-4 0.005216826684772968 -0.002651199698448181 4.0948999230749905E-4 -0.002838045358657837 0.0022626598365604877 -0.0016198315424844623 -0.00453988229855895 -0.0037536935415118933 0.003442322602495551 0.0031280950643122196 -0.003955421037971973 0.0017480587121099234 0.0038314892444759607 -0.0040842462331056595 -0.0038049002178013325 -0.0045406329445540905 0.002197800436988473 0.004508689511567354 0.002359942300245166 -0.0014163132291287184 -0.0027594200801104307 -0.004469105042517185 -0.0036760864313691854 0.0011040513636544347 -0.004339640960097313 0.001864936901256442 -0.0017671971581876278 -0.0017583213048055768 5.271637928672135E-4 -3.413028025534004E-4 -0.0010570073500275612 0.004363703075796366 0.0011367442784830928 -5.452713812701404E-4 0.0035314024426043034 0.0028288306202739477 0.003280757926404476 0.0030829254537820816 -0.003085294272750616 -2.898309612646699E-4 -4.609395400620997E-4 -0.0028868692461401224 0.0014918269589543343 0.0039010592736303806 -0.0017128381878137589 0.0013471512356773019 0.0012386974412947893 -0.005307194776833057 0.0015782784903421998 -0.00344400224275887 -0.004263177048414946 0.0046545653603971004
out 0.004727725870907307 -0.0017917163204401731 -0.004439261741936207 -0.0016299033304676414 -8.11296165920794E-4 -0.0038050662260502577 0.0027289767749607563 -0.0020119925029575825 0.0010995249031111598 0.001177256228402257 -0.00301698362454772 0.0012236139737069607 -0.002076138509437442 0.003036802401766181 0.0029669604264199734 0.001010323059745133 -0.001214327523484826 0.0020484772976487875 0.004579558037221432 0.0018680798821151257 0.0030568460933864117 -8.653845288790762E-4 -0.004579213447868824 0.0026160357519984245 0.004093603231012821 -0.005172338802367449 0.002498618559911847 0.002555224345996976 -7.887152023613453E-4 0.0013062722282484174 -0.005016194190829992 0.0030562449246644974 -0.003692986909300089 0.0025518664624542 0.0011978748952969909 -0.0015618784818798304 -0.004180197604000568 -0.005187720060348511 0.001850420841947198 -0.0017821433721110225 2.781535149551928E-4 0.001462397980503738 0.0027914131060242653 -0.0032532087061554193 -1.553192996652797E-4 0.0010549970902502537 0.0019939043559134007 -8.418092038482428E-4 -0.002778030000627041 3.5387708339840174E-4 -0.0017470181919634342 -0.0019255278166383505 3.238994686398655E-4 0.004336512181907892 -0.001108127529732883 0.001709622680209577 -0.00241283536888659 8.611482917331159E-4 0.003980405628681183 -0.003929243888705969 0.0040314472280442715 -7.841247133910656E-4 -0.003769457573071122 -0.003836384043097496 0.0024955931585282087 -0.0015913188690319657 -0.004959252197295427 -0.0015869387425482273 0.001978453481569886 -0.005443159025162458 -5.642563919536769E-4 -0.0017562593566253781 -0.0038376764860004187 0.0029872749000787735 1.5749770682305098E-4 -1.869581756182015E-4 0.001938124536536634 0.0010735067771747708 0.004611564800143242 -0.0024736567866057158 0.0019497510511428118 0.0035425303503870964 7.293740782188252E-5 0.004358136095106602 4.5797284110449255E-4 0.001512829214334488 -0.0038174777291715145 6.492241518571973E-4 -1.4573035878129303E-4 -0.004864455666393042 0.003852680092677474 0.004547026939690113 8.13500490039587E-4 0.003766820300370455 -0.0031940010376274586 -0.004949565511196852 -0.002283683978021145 0.003104784060269594 0.0048956722021102905 0.003509239060804248
into 0.00276539521291852 -0.002783152274787426 0.004259935580193996 0.004769445862621069 -0.0036844511050730944 0.003910460043698549 0.0019508349942043424 -0.002273943042382598 0.0035444831009954214 4.198129172436893E-4 -0.0026621746364980936 -0.0021610851399600506 -0.0048493253998458385 0.0023089703172445297 -0.004850836470723152 -0.004243586678057909 0.004475653171539307 -0.001995918108150363 0.0016647144220769405 -0.0031133873853832483 0.004548765253275633 0.002690530614927411 -0.0010908000404015183 0.0015911497175693512 0.0033496064133942127 0.0015664135571569204 -7.483086665160954E-4 0.0013098485069349408 0.003211881034076214 -0.004890006501227617 0.0010694673983380198 0.0049424730241298676 -0.0042502377182245255 -0.0013096160255372524 0.0023344443179666996 0.0017444336554035544 1.3533583842217922E-4 9.475136721448507E-6 -0.002019803039729595 0.0018659594934433699 -0.0012218593619763851 -0.001053376356139779 0.004416442010551691 0.005009613465517759 0.003577911527827382 -0.004452111665159464 0.0024380781687796116 0.0036538310814648867 0.0011322071077302098 -0.003910766914486885 -0.0020764858927577734 -5.24591829162091E-4 -0.004101410508155823 -4.639687540475279E-4 0.003496603574603796 0.004058642312884331 0.0026272020768374205 -0.003941681236028671 -2.4297978961840272E-4 -0.004248920362442732 4.7005416126921773E-4 0.001806469983421266 -0.002736060880124569 -7.308899657800794E-4 0.0010791607201099396 -0.004799511283636093 0.0033457111567258835 -0.001714993384666741 0.004753126762807369 0.0027677228208631277 0.004022405482828617 -0.004777739755809307 7.15474714525044E-4 0.0018624363001435995 -0.004056198988109827 -0.002071869093924761 -0.0031751825008541346 0.0019518790068104863 -0.004774652887135744 -0.0029082989785820246 -0.003102982649579644 -0.004338471218943596 2.0959229732397944E-4 -8.134511881507933E-4 -0.0037262295372784138 0.003490100847557187 -0.002709708409383893 0.003712482750415802 0.0030718802008777857 -0.0015917562413960695 8.080894476734102E-4 -0.003917766734957695 -3.2652096706442535E-4 -7.600217359140515E-4 4.0762711432762444E-4 0.003407376119866967 -0.004444439895451069 0.0023676566779613495 -0.0016715319361537695 0.003979228902608156
how 0.008141844533383846 0.011375432834029198 0.006783573422580957 0.0014512297930195928 0.00972736906260252 0.016573244705796242 0.0043506440706551075 -0.012105032801628113 0.0162452794611454 -0.014089556410908699 -4.2845067218877375E-4 0.003747404320165515 0.002849772572517395 0.007836690172553062 -0.01473806519061327 -0.016452796757221222 0.004649497102946043 0.005991822574287653 0.0020185946486890316 -0.0032774037681519985 -0.008868861012160778 -0.0053648874163627625 0.012774880044162273 0.01011718064546585 0.004852199461311102 -0.023975785821676254 0.010634378530085087 -0.006315315142273903 -0.013089433312416077 0.0020636157132685184 -0.010120850056409836 -0.007934853434562683 0.01013259682804346 -0.018612828105688095 0.002836190862581134 -0.014328677207231522 -0.01078807283192873 -1.8940499285236E-4 0.0037234195042401552 0.016302738338708878 -0.014522723853588104 0.006231742911040783 0.0023416830226778984 -0.0015617141034454107 -0.008028263226151466 -0.0037369434721767902 5.778723862022161E-4 0.01598832756280899 0.01157297007739544 -0.007889716885983944 0.005062848329544067 -8.016317733563483E-4 0.009005175903439522 0.004206601995974779 8.928910829126835E-4 -0.0073601966723799706 0.009268802590668201 -0.013705382123589516 -0.005874773021787405 -0.010952422395348549 0.003167578484863043 -0.011849711649119854 0.00715253921225667 -0.0033526543993502855 0.00892255175858736 0.0023193499073386192 -0.009579937905073166 0.01089141983538866 -0.009479278698563576 -0.016948407515883446 0.0028998383786529303 -0.007150284480303526 -0.010790372267365456 0.006133890710771084 0.007500987499952316 0.006926005706191063 0.00746924290433526 0.0037022659089416265 0.01122653391212225 0.008858518674969673 0.016722025349736214 1.0426080552861094E-4 -0.011929154396057129 0.005934175103902817 -0.0055596791207790375 -0.008414891548454762 -0.004732062108814716 -0.02318877913057804 0.009507596492767334 -0.0018224880332127213 0.01889648102223873 -0.0085344472900033 -0.006717490963637829 -0.0025975184980779886 0.008550975471735 0.004027500282973051 0.007073377724736929 -0.004283019341528416 0.0015964602353051305 0.0057209855876863
file -0.003160645952448249 0.003301890566945076 -1.1561857536435127E-4 0.0023926408030092716 -2.3546077136415988E-4 0.004220013041049242 0.0022986074909567833 8.015433559194207E-5 -0.0023531466722488403 0.004438561387360096 0.0036705632228404284 0.003558277152478695 -0.0016854380955919623 0.0020714139100164175 7.73400126490742E-4 0.002794177969917655 -0.0028347978368401527 -0.0024474302772432566 -0.004577645566314459 -0.002000371227040887 -0.0038153615314513445 0.0036000008694827557 -0.0012903339229524136 6.956306169740856E-4 0.0021450005006045103 0.0010616042418405414 0.001315126195549965 -0.0029293131083250046 0.003912447951734066 -0.0042785294353961945 -0.00519126420840621 0.0032105071004480124 -0.0012183261569589376 -0.0038246188778430223 -3.2590804039500654E-4 -0.003017283510416746 -0.0054943254217505455 3.597140603233129E-4 -0.0029443607199937105 0.0023318559397011995 3.3834821078926325E-4 -8.757499163039029E-4 0.003092545550316572 -0.004143336787819862 -6.483858451247215E-4 -0.003249513451009989 -0.005136444233357906 1.2682616943493485E-4 0.004292633850127459 -2.0628560378099792E-5 0.0024198417086154222 0.002887990325689316 0.0011998172849416733 -7.448603864759207E-4 0.0048192935064435005 0.0015707336133345962 0.002951689064502716 -3.615213790908456E-4 0.003974572289735079 -0.0027796404901891947 -0.0017109940527006984 -5.491412593983114E-4 0.005265027284622192 -0.0014177613193169236 0.0025532571598887444 -0.003988174255937338 -0.001417169813066721 -0.001892691245302558 -6.548861274495721E-4 -0.005949305836111307 -0.004211461637169123 -0.003990488592535257 -0.002540468005463481 -9.092290420085192E-4 -0.0017666788771748543 -0.004654272925108671 8.102596621029079E-4 -0.003851483343169093 6.708865112159401E-5 0.0025393280666321516 1.2798432726413012E-4 0.0032960607204586267 0.004119476769119501 0.004290923476219177 0.004229540936648846 -3.1730902264826E-5 0.0010084586683660746 0.0021936926059424877 -0.003275018883869052 0.0025978938210755587 0.005648175720125437 -0.0014436058700084686 0.0053485375829041 -0.00139227497857064 -8.228574879467487E-4 -0.0034344845917075872 -0.0012044955510646105 0.0023448322899639606 -4.15670481743291E-4 -0.004440785385668278
transcript 0.003189894836395979 0.0030959153082221746 0.002215663203969598 0.004779337905347347 -0.004631904885172844 0.004296122118830681 1.10467808553949E-4 0.002890166360884905 -0.0022139912471175194 0.00427654106169939 0.0016726208850741386 -3.2366777304559946E-4 -0.0041518667712807655 0.0016053039580583572 -0.003913525957614183 8.738835458643734E-4 -5.287452950142324E-4 0.0011163086164742708 -0.002650401322171092 0.002928421599790454 0.002338473219424486 -0.0050398013554513454 -0.001544790924526751 -0.0021122151520103216 -0.0011382551165297627 -3.7021178286522627E-4 -0.0036655173171311617 -1.9942186190746725E-4 0.004319683648645878 0.0035679663997143507 0.004476489033550024 3.5757230944000185E-4 -0.0026004209648817778 0.0037900973111391068 -0.0031781408470124006 0.001709118951112032 0.002006265800446272 0.0034531252458691597 0.001139535685069859 -0.001520581659860909 -0.0021672649309039116 0.003492981195449829 7.139319786801934E-4 -0.0021250180434435606 0.0039861081168055534 0.0013268744805827737 0.003203599015250802 -0.002588821342214942 0.001985828625038266 0.0019696298986673355 -0.0030409572646021843 0.001661008456721902 0.002565610921010375 -0.004417862743139267 0.004850402008742094 -0.0012209012638777494 0.0016852626577019691 -0.004364694468677044 -0.003251346992328763 -0.0013282900908961892 0.00417087459936738 8.088305476121604E-4 -0.0025155104231089354 5.513226496987045E-4 -0.004656903445720673 -0.002935416530817747 -0.0037295862566679716 -3.8054294418543577E-4 -0.0030243173241615295 -0.003111777827143669 -0.002148151397705078 5.7754125009523705E-5 8.418985089519992E-6 0.004041725303977728 -0.0021835293155163527 -0.0037454420235008 2.3988910834304988E-4 0.0025693923234939575 0.003552186070010066 -0.0016137101920321584 0.003428770462051034 8.839860674925148E-4 -0.002511426340788603 4.803591000381857E-4 -0.003382833441719413 -0.003103239694610238 0.003233332186937332 0.0034809221979230642 -0.0014972046483308077 -0.0031110309064388275 -0.0011054752394557 -0.001991746947169304 0.0033311848528683186 2.815386396832764E-4 0.0019706981256604195 -0.001881138072349131 0.00351710245013237 -1.3391800166573375E-4 2.719277108553797E-4 -8.815142209641635E-4
same 0.0017423128010705113 -0.002272755838930607 -0.004156903363764286 -7.101997034624219E-4 0.003711315570399165 0.001581531367264688 -0.004122700542211533 6.3321489142254E-4 0.0019142813980579376 0.0018916011322289705 6.855346146039665E-4 -0.0030893422663211823 -0.0018238929333165288 -6.054332479834557E-4 -0.003996521700173616 -0.004350725095719099 0.00510735809803009 0.004441756755113602 0.0035773138515651226 -0.0018233301816508174 -9.390517370775342E-4 0.0022774816025048494 -0.004421877209097147 -0.003962297458201647 -0.004283281974494457 -0.0037519684992730618 0.001303158001974225 0.0026876088231801987 5.834829062223434E-4 -0.003423509420827031 -0.003995820879936218 0.00229661469347775 0.0025758754927664995 -0.0054382700473070145 -0.0023234961554408073 -0.004771920386701822 -0.005020468030124903 -0.003452361561357975 0.002481533447280526 0.002723464509472251 0.0027558752335608006 -5.631724488921463E-4 0.004467257298529148 0.002679178724065423 -0.002184168202802539 7.181643159128726E-4 -0.003096595872193575 -0.0028004671912640333 0.005154695827513933 -0.0014714234275743365 0.0022057027090340853 0.0013540468644350767 0.004371948074549437 0.0047649238258600235 8.756991592235863E-4 0.003775946330279112 -0.0045964401215314865 0.0018355377251282334 0.00121118884999305 0.004669146612286568 0.004493643529713154 -0.0032156845554709435 0.004370223265141249 0.0033281678333878517 0.003999313805252314 5.963148432783782E-4 0.0027764642145484686 -0.002046917797997594 6.325558642856777E-4 0.0021878844127058983 -0.0033680780325084925 -0.004573535174131393 -0.0020533448550850153 0.003223465522751212 -0.002695847535505891 -2.486506418790668E-4 -1.6003448399715126E-4 0.004153007175773382 -0.004065447021275759 4.3378013651818037E-4 -0.002971221227198839 -0.004563971888273954 -0.005078715272247791 0.0047444249503314495 0.002275182167068124 -0.0036156130954623222 -0.0018304205732420087 0.0031103724613785744 -0.0036380141973495483 6.746270810253918E-4 -0.002180608222261071 0.0044366540387272835 -0.0031881993636488914 -3.3555159461684525E-4 0.0026561818085610867 9.045720798894763E-4 0.005234528798609972 -0.001415209611877799 -7.938551716506481E-4 -0.0017576495883986354
are 0.004036654718220234 -0.002709456952288747 0.0019684485159814358 0.0010239231633022428 0.0010730226058512926 0.002573286648839712 -0.00456077978014946 -0.0033816725481301546 -8.522406569682062E-4 -0.0049622091464698315 0.005008645821362734 -0.002427271567285061 -0.00104025867767632 6.636024336330593E-4 8.071360207395628E-5 -0.0028721524868160486 0.0017730998806655407 -0.004341633524745703 0.0033532341476529837 -0.0011919473763555288 -0.004848983604460955 -0.002767217578366399 0.006420138292014599 0.003649311838671565 -0.003948879893869162 0.0020689028315246105 1.6754851094447076E-4 0.0013788564829155803 -0.0040189470164477825 -0.0012122623156756163 0.003346162848174572 -0.0035751175601035357 0.0030885054729878902 -0.0033903433941304684 -0.0020592070650309324 7.724420283921063E-4 -0.003454851685091853 6.365680601447821E-4 0.003508845577016473 -0.0022361045703291893 -0.002062030602246523 -0.0011054639471694827 -0.004884376190602779 3.7330397753976285E-4 -0.0010129425209015608 0.004239651840180159 -0.002022002125158906 -4.4875615276396275E-4 -0.004041462671011686 0.004119306802749634 1.443049495719606E-5 -1.2510771921370178E-4 0.004862998146563768 -0.0016859398456290364 0.0030558339785784483 -0.001251288573257625 3.332791675347835E-4 -0.00401033740490675 0.0036250415723770857 2.8501960332505405E-4 8.511564810760319E-4 -0.005396050401031971 -0.002469239290803671 0.002472854917868972 0.0016030934639275074 -0.002887004055082798 0.004134784452617168 0.004250940401107073 -0.005394268780946732 0.003990754950791597 -0.003316472750157118 7.840281468816102E-4 -0.0030109684448689222 -0.004296679515391588 0.004915923345834017 -0.004503019154071808 -0.0014869221486151218 -0.0019615706987679005 -0.0032535248901695013 0.004115751478821039 0.0044762385077774525 -5.658314330503345E-4 0.0010175913339480758 0.0013065554667264223 -0.003269379260018468 -0.0012959433952346444 -0.0011134702945128083 -0.0050661880522966385 0.004303848370909691 -0.0016638917149975896 -0.0020571076311171055 0.0015484071336686611 -0.004317539278417826 -0.0012455001706257463 0.0015345573192462325 -0.0019851254764944315 -0.0015854369848966599 0.002629544585943222 -0.0012018454726785421 0.0011256395373493433
